
\data\
ngram 1=41
ngram 2=746

\1-grams:
-0.7698641	</s>
-99	<s>	-4.04998
-1.006496	a	-2.608624
-1.959974	b	-2.69705
-1.427626	c	-2.833628
-1.379306	d	-3.35005
-0.9687425	e	-0.5691094
-2.20416	f	-2.732788
-2.044677	g	-3.692045
-2.167727	h	-2.874062
-1.288257	i	-3.636711
-2.508782	j	-2.803113
-3.510287	k	-1.569825
-1.312184	l	-2.531318
-1.640322	m	-3.115863
-1.234848	n	-1.752161
-1.149294	o	-2.434873
-1.65577	p	-3.456254
-2.092193	q	-3.477869
-1.268319	r	-1.636899
-1.199417	s	-2.649863
-1.440866	t	-2.937184
-1.476026	u	-1.333818
-2.091503	v	-3.077107
-3.978453	w	-2.189939
-2.889775	x	-2.421715
-2.14231	y	-3.024619
-2.485095	z	-2.974909
-5.66865	Á	-0.2974978
-5.066589	É	-1.231002
-5.66865	Í	-0.2850009
-5.66865	Ó	-0.2909727
-5.66865	Ú	-0.2793328
-2.460746	á	-2.799499
-4.627257	ç	-1.03414
-2.65835	é	-2.255358
-2.321906	í	-2.44508
-2.77767	ñ	-2.739298
-2.206252	ó	-3.072154
-2.98023	ú	-2.06566
-4.389896	ü	-2.019294

\2-grams:
-1.12587	<s> a
-1.8894	<s> b
-1.098065	<s> c
-0.940622	<s> d
-0.9156762	<s> e
-1.751484	<s> f
-1.942203	<s> g
-1.559003	<s> h
-1.700469	<s> i
-2.42173	<s> j
-3.174575	<s> k
-1.004591	<s> l
-1.362545	<s> m
-1.575187	<s> n
-1.755212	<s> o
-1.102624	<s> p
-1.416693	<s> q
-1.621013	<s> r
-1.146342	<s> s
-1.497278	<s> t
-1.535051	<s> u
-1.759917	<s> v
-3.597821	<s> w
-3.700484	<s> x
-1.504575	<s> y
-2.81967	<s> z
-4.898851	<s> Á
-4.296791	<s> É
-4.898851	<s> Ó
-4.898851	<s> Ú
-3.342549	<s> á
-2.673542	<s> é
-3.694731	<s> í
-3.81967	<s> ó
-2.826969	<s> ú
-0.4731325	a </s>
-3.463946	a a
-1.454949	a b
-1.343	a c
-1.11282	a d
-2.823465	a e
-2.492052	a f
-2.08253	a g
-2.555104	a h
-2.703273	a i
-2.112086	a j
-3.361284	a k
-1.119488	a l
-1.518051	a m
-1.051547	a n
-3.407041	a o
-1.938038	a p
-2.506978	a q
-0.9972022	a r
-0.9797176	a s
-1.650743	a t
-2.159887	a u
-2.280297	a v
-4.060254	a w
-3.407041	a x
-2.073482	a y
-2.218269	a z
-3.810524	a ç
-3.884163	a é
-2.568892	a í
-1.969467	a ñ
-3.018861	a ú
-2.505489	b </s>
-0.5916753	b a
-3.107549	b b
-2.668216	b c
-2.857819	b d
-1.051598	b e
-3.709609	b f
-2.857819	b h
-0.7984515	b i
-2.247211	b j
-0.9000494	b l
-3.709609	b n
-1.209922	b o
-0.7558494	b r
-1.741126	b s
-2.47916	b t
-1.351674	b u
-2.931458	b v
-2.563481	b á
-2.505489	b é
-1.433147	b í
-2.278245	b ó
-2.533518	b ú
-2.697503	c </s>
-0.7814255	c a
-4.241571	c b
-1.81669	c c
-3.338481	c d
-1.087452	c e
-3.043204	c f
-3.389781	c g
-1.388482	c h
-0.6346529	c i
-3.241571	c k
-1.708817	c l
-4.241571	c m
-2.485697	c n
-0.5895185	c o
-3.389781	c q
-1.540868	c r
-3.639511	c s
-1.293648	c t
-1.110916	c u
-4.241571	c v
-2.517296	c á
-2.710093	c é
-2.05688	c í
-2.077219	c ó
-3.76445	c ú
-1.393859	d </s>
-0.8579881	d a
-4.289834	d b
-0.332658	d e
-3.438044	d g
-3.812713	d h
-1.013143	d i
-3.444736	d j
-4.289834	d l
-2.758355	d m
-4.289834	d n
-0.7085673	d o
-3.248441	d q
-1.873194	d r
-3.091466	d s
-3.438044	d t
-1.556637	d u
-2.842676	d v
-4.289834	d w
-4.289834	d y
-3.034562	d á
-2.721632	d é
-1.988804	d í
-2.608593	d ó
-3.210653	d ú
-0.5490525	e </s>
-1.998486	e a
-2.243688	e b
-1.421301	e c
-1.737685	e d
-2.854956	e e
-2.2059	e f
-1.762537	e g
-3.319843	e h
-2.603144	e i
-2.172425	e j
-3.848264	e k
-0.9933366	e l
-1.589465	e m
-0.7955552	e n
-2.386187	e o
-2.185507	e p
-2.557039	e q
-0.9596917	e r
-0.8218199	e s
-1.821533	e t
-2.683021	e u
-1.984887	e v
-4.700054	e w
-2.018813	e x
-2.951866	e y
-2.224383	e z
-4.700054	e á
-4.700054	e é
-3.168576	e í
-2.390424	e ñ
-3.523963	e ó
-3.501687	e ú
-2.123703	f </s>
-1.005228	f a
-3.466126	f b
-2.614336	f d
-0.7894323	f e
-2.511883	f f
-0.595722	f i
-1.608793	f l
-3.466126	f m
-0.890938	f o
-2.614336	f p
-1.005228	f r
-3.466126	f s
-2.210853	f t
-0.8062097	f u
-1.947612	f á
-2.187372	f é
-1.574031	f í
-2.290035	f ó
-2.352183	f ú
-2.283198	g </s>
-0.6713786	g a
-2.773831	g d
-1.01924	g e
-2.44953	g h
-1.009671	g i
-3.625621	g k
-1.727994	g l
-2.625621	g m
-1.701342	g n
-0.8410038	g o
-0.8431485	g r
-2.427253	g s
-2.421501	g t
-0.7402599	g u
-2.057419	g á
-3.023561	g é
-1.909618	g í
-1.953523	g ó
-1.54644	g ú
-2.511678	g ü
-2.273478	h </s>
-0.3033499	h a
-1.011166	h e
-3.503927	h f
-3.503927	h g
-1.019627	h i
-2.652137	h k
-3.503927	h l
-0.6970688	h o
-2.389983	h r
-3.503927	h s
-2.600837	h t
-1.213892	h u
-2.305559	h w
-2.299807	h á
-2.424746	h é
-1.860474	h í
-2.658829	h ó
-2.652137	h ú
-1.728634	i </s>
-1.104878	i a
-1.712494	i b
-1.011479	i c
-1.040635	i d
-1.04402	i e
-1.927562	i f
-1.573345	i g
-3.182513	i h
-2.28397	i j
-3.182513	i k
-1.416621	i l
-1.359691	i m
-0.954369	i n
-1.136851	i o
-1.927562	i p
-2.699639	i q
-1.406369	i r
-1.147884	i s
-1.36931	i t
-2.441361	i u
-1.518153	i v
-3.52909	i w
-3.77882	i x
-3.204789	i y
-1.779907	i z
-3.266937	i á
-2.158164	i é
-2.768096	i ñ
-1.182498	i ó
-4.38088	i ú
-2.047724	j </s>
-0.5993745	j a
-0.668907	j e
-1.593466	j i
-3.161667	j j
-2.309877	j n
-0.5201933	j o
-0.8373849	j u
-2.161667	j á
-2.015539	j é
-3.161667	j í
-1.538418	j ó
-0.8905734	k </s>
-0.6647944	k a
-2.232996	k b
-0.8712683	k e
-1.381206	k f
-0.6766936	k i
-2.232996	k l
-2.232996	k m
-2.232996	k n
-1.329906	k o
-2.232996	k r
-1.381206	k s
-1.034629	k u
-2.232996	k w
-1.381206	k y
-2.232996	k í
-0.6272643	l </s>
-0.5574606	l a
-3.056047	l b
-2.453987	l c
-2.357077	l d
-0.9339949	l e
-3.014654	l f
-1.900711	l g
-3.505287	l h
-1.186815	l i
-4.357077	l j
-3.505287	l k
-1.336716	l l
-2.094626	l m
-3.158709	l n
-0.8334605	l o
-2.777293	l p
-2.777293	l q
-3.755017	l r
-2.666881	l s
-1.659847	l t
-1.700979	l u
-2.239805	l v
-4.357077	l w
-3.357077	l y
-3.014654	l z
-2.586225	l á
-2.274292	l é
-1.938776	l í
-2.201741	l ó
-3.158709	l ú
-2.177516	m </s>
-0.7299215	m a
-1.234286	m b
-3.551653	m c
-3.176985	m d
-0.7105024	m e
-0.8440831	m i
-4.028775	m j
-2.882647	m l
-2.987382	m m
-2.497296	m n
-0.7869791	m o
-0.9711084	m p
-3.125684	m s
-3.183676	m t
-1.215861	m u
-3.176985	m y
-4.028775	m z
-1.293176	m á
-2.236383	m é
-2.2729	m í
-2.209231	m ó
-2.551653	m ú
-0.5126796	n </s>
-0.982572	n a
-3.354717	n b
-1.240495	n c
-1.149919	n d
-1.259547	n e
-2.030777	n f
-1.985191	n g
-3.392505	n h
-1.327707	n i
-2.743702	n j
-3.655746	n k
-3.655746	n l
-2.306793	n m
-3.018924	n n
-1.048292	n o
-4.433898	n p
-2.376993	n q
-2.956777	n r
-1.52274	n s
-0.7890655	n t
-1.827516	n u
-2.002534	n v
-3.582108	n x
-3.433898	n y
-2.254921	n z
-3.018924	n á
-2.821114	n é
-2.412709	n í
-2.451627	n ó
-2.810648	n ú
-0.4695962	o </s>
-3.014284	o a
-1.701208	o b
-1.57594	o c
-1.652556	o d
-2.771246	o e
-2.281388	o f
-2.152078	o g
-3.121494	o h
-2.92837	o i
-2.523799	o j
-3.565192	o k
-1.437727	o l
-1.322154	o m
-0.8859658	o n
-2.975366	o o
-1.874012	o p
-2.917374	o q
-0.9552417	o r
-0.7133221	o s
-1.672479	o t
-2.987955	o u
-2.273921	o v
-3.616344	o w
-3.014284	o x
-2.249921	o y
-2.69989	o z
-4.519434	o á
-3.667644	o é
-3.343343	o í
-3.157706	o ñ
-2.59837	p </s>
-0.6705256	p a
-4.013343	p b
-2.581979	p c
-4.013343	p d
-0.7821283	p e
-3.536222	p g
-1.300693	p i
-4.013343	p k
-1.270618	p l
-3.411283	p n
-0.6282731	p o
-2.8994	p p
-0.7527945	p r
-2.581979	p s
-1.941461	p t
-1.173237	p u
-3.536222	p y
-2.814975	p z
-2.45704	p á
-2.837252	p é
-2.633132	p í
-2.323147	p ó
-2.494829	p ú
-2.576572	q </s>
-0.001268351	q u
-0.8243524	r </s>
-0.7090012	r a
-2.519534	r b
-1.85628	r c
-1.798288	r d
-0.7353302	r e
-2.72825	r f
-1.945503	r g
-4.400348	r h
-1.023406	r i
-3.622197	r j
-3.446105	r k
-2.040513	r l
-1.610767	r m
-1.875303	r n
-0.9196226	r o
-2.404713	r p
-2.279774	r q
-1.569759	r r
-1.68351	r s
-1.410898	r t
-1.805955	r u
-2.23898	r v
-4.400348	r w
-4.400348	r x
-3.798288	r y
-2.531116	r z
-4.400348	r Í
-1.793967	r á
-3.446105	r ç
-2.667954	r é
-1.790754	r í
-2.201691	r ó
-3.169899	r ú
-0.3265252	s </s>
-1.319179	s a
-3.168291	s b
-1.767753	s c
-2.342216	s d
-0.9768402	s e
-2.473686	s f
-2.964171	s g
-2.964171	s h
-1.12336	s i
-3.617531	s j
-3.427928	s k
-2.588508	s l
-2.011439	s m
-3.427928	s n
-1.234298	s o
-1.619902	s p
-2.889538	s q
-3.168291	s r
-3.427928	s s
-0.9755844	s t
-1.247646	s u
-3.29323	s v
-4.469321	s w
-3.29323	s á
-2.9922	s é
-2.358732	s í
-2.290344	s ó
-3.9922	s ú
-2.223617	t </s>
-0.6356503	t a
-2.949184	t b
-2.829998	t c
-4.227938	t d
-0.6443993	t e
-3.38284	t f
-3.38284	t h
-0.8552102	t i
-3.113995	t l
-3.08181	t m
-3.324848	t n
-0.7792318	t o
-0.8620759	t r
-3.113995	t s
-2.68387	t t
-1.342012	t u
-4.227938	t v
-4.227938	t w
-3.376148	t y
-3.324848	t z
-1.868103	t á
-2.324848	t é
-2.084923	t í
-2.010454	t ó
-2.847727	t ú
-1.315995	u </s>
-1.360921	u a
-1.860352	u b
-1.371277	u c
-1.697246	u d
-0.5037481	u e
-2.379877	u f
-2.059252	u g
-3.59073	u h
-1.347692	u i
-2.102885	u j
-3.289701	u k
-1.3571	u l
-1.635283	u m
-0.7086329	u n
-2.468514	u o
-1.781171	u p
-3.238548	u q
-1.257787	u r
-1.287534	u s
-1.618759	u t
-3.113609	u u
-2.317729	u v
-3.341001	u x
-1.893937	u y
-2.601726	u z
-2.79485	u á
-2.088987	u é
-2.335458	u í
-2.962342	u ñ
-3.078847	u ó
-2.347387	v </s>
-0.6629645	v a
-3.577836	v d
-0.5545839	v e
-3.577836	v h
-0.5190309	v i
-2.726046	v k
-3.577836	v n
-0.8486716	v o
-3.577836	v s
-1.732738	v u
-2.674746	v á
-2.431708	v é
-1.633354	v í
-2.373716	v ó
-0.5477023	w a
-1.176091	w e
-1.778151	w h
-0.6320232	w i
-1.30103	w n
-0.5797836	w o
-1.176091	w s
-1.778151	w ü
-1.268237	x </s>
-1.507998	x a
-1.184691	x c
-2.30963	x e
-2.30963	x h
-0.4423591	x i
-1.941653	x o
-0.6344631	x p
-2.786752	x q
-0.7075702	x t
-1.941653	x u
-1.934962	x v
-2.786752	x y
-1.934962	x í
-0.1050604	y </s>
-1.162519	y a
-3.054613	y b
-3.531734	y c
-1.379446	y e
-3.531734	y f
-2.679944	y g
-2.327614	y i
-2.679944	y k
-2.929674	y l
-2.679944	y m
-3.531734	y n
-1.211588	y o
-2.333367	y p
-2.679944	y s
-1.975432	y u
-3.054613	y w
-2.679944	y á
-2.679944	y í
-2.209515	y ó
-3.531734	y ú
-0.7863377	z </s>
-0.3326343	z a
-2.339381	z b
-1.578388	z c
-2.236929	z e
-2.191171	z g
-3.191171	z h
-2.11199	z i
-3.191171	z k
-2.71405	z l
-1.992804	z m
-1.442983	z n
-0.9334929	z o
-2.589112	z p
-2.41302	z q
-2.41302	z t
-1.567922	z u
-1.391831	z z
-1.686021	z á
-3.191171	z í
-1.346073	z ó
-1.992804	z ü
-0.30103	Á v
-0.3243013	É l
-0.3243013	É s
-0.30103	Í t
-0.30103	Ó m
-0.30103	Ú l
-0.6630787	á </s>
-1.868431	á b
-1.23313	á c
-2.359063	á d
-1.9321	á f
-1.619789	á g
-3.210853	á i
-2.608793	á j
-1.34753	á l
-1.868431	á m
-0.7469604	á n
-2.210853	á p
-2.256611	á q
-1.548096	á r
-0.4816886	á s
-1.418462	á t
-2.608793	á u
-2.210853	á v
-2.09691	á x
-2.359063	á y
-3.210853	á z
-0.03778856	ç a
-0.772288	é </s>
-2.234686	é a
-2.109747	é b
-0.9714445	é c
-1.670415	é d
-2.012837	é f
-1.808717	é g
-2.167739	é i
-1.008516	é l
-1.971444	é m
-0.7118073	é n
-2.161047	é o
-1.757565	é p
-3.012837	é q
-1.053796	é r
-0.8033222	é s
-1.272475	é t
-1.933656	é u
-1.757565	é x
-0.9874108	í </s>
-0.2876895	í a
-2.30963	í b
-1.321639	í c
-1.512174	í d
-2.174932	í e
-1.669782	í f
-2.351023	í g
-2.499233	í j
-2.499233	í l
-1.458928	í m
-1.464532	í n
-1.652053	í o
-2.30963	í p
-2.152655	í q
-1.888625	í r
-1.049993	í s
-1.317599	í t
-2.271842	í v
-0.4877759	ñ a
-1.326114	ñ e
-1.780373	ñ i
-0.2578282	ñ o
-2.894316	ñ u
-2.042526	ñ á
-1.532588	ñ í
-1.748188	ñ ó
-0.508788	ó </s>
-3.462548	ó b
-2.61745	ó c
-2.232099	ó d
-2.860488	ó f
-1.593316	ó g
-2.985426	ó j
-1.313329	ó l
-1.390666	ó m
-0.2887789	ó n
-2.684397	ó p
-1.944034	ó r
-1.944034	ó s
-2.559458	ó t
-1.882764	ó v
-2.047574	ó x
-1.175213	ú </s>
-1.414973	ú a
-1.246569	ú b
-2.216606	ú c
-2.693727	ú d
-2.216606	ú e
-1.841937	ú g
-2.091667	ú h
-2.693727	ú j
-0.790637	ú l
-1.125525	ú m
-0.3338915	ú n
-1.848629	ú p
-2.693727	ú r
-1.278754	ú s
-1.547599	ú t
-0.5740313	ü e
-1.477121	ü i
-0.2787536	ü l
-1.477121	ü r
-0.8750613	ü í

\end\
