
\data\
ngram 1=42
ngram 2=746

\1-grams:
-0.7698663	</s>
-99	<s>	-2.589473
-5.364835	<unk>
-1.006499	a	-1.146003
-1.959975	b	-1.229876
-1.427628	c	-1.415724
-1.379308	d	-1.949151
-0.9687447	e	0.8839989
-2.204161	f	-1.326685
-2.044678	g	-1.377851
-2.167728	h	-1.591925
-1.28826	i	-1.640433
-2.508781	j	-1.675741
-3.510259	k	-0.283507
-1.312186	l	-0.3490586
-1.640324	m	-1.648101
-1.23485	n	-0.2123423
-1.149296	o	-0.8947909
-1.655772	p	-1.39989
-2.092194	q	-3.176955
-1.268321	r	-0.1071589
-1.199419	s	-1.138311
-1.440868	t	-1.472935
-1.476028	u	0.2052722
-2.091504	v	-1.852126
-3.978367	w	-0.5878837
-2.88977	x	-1.171264
-2.142311	y	-1.446629
-2.485095	z	-1.125758
-5.66433	Á	-0.2974978
-5.065507	É	-0.4255771
-5.66433	Í	-0.285001
-5.66433	Ó	-0.2909727
-5.66433	Ú	-0.2793329
-2.460746	á	-1.373514
-4.626864	ç	-1.03414
-2.658348	é	-0.9320791
-2.321906	í	-1.162758
-2.777667	ñ	-1.787349
-2.206252	ó	-1.870279
-2.980223	ú	-0.8202828
-4.38967	ü	-0.5467226

\2-grams:
-1.125996	<s> a
-1.889526	<s> b
-1.098192	<s> c
-0.940748	<s> d
-0.9158023	<s> e
-1.75161	<s> f
-1.942329	<s> g
-1.559129	<s> h
-1.700595	<s> i
-2.421856	<s> j
-3.174701	<s> k
-1.004717	<s> l
-1.362671	<s> m
-1.575313	<s> n
-1.755338	<s> o
-1.10275	<s> p
-1.416819	<s> q
-1.621139	<s> r
-1.146468	<s> s
-1.497404	<s> t
-1.535177	<s> u
-1.760043	<s> v
-3.597947	<s> w
-4.200007	<s> x
-1.504701	<s> y
-2.819796	<s> z
-4.898977	<s> Á
-4.296917	<s> É
-4.898977	<s> Ó
-4.898977	<s> Ú
-3.342675	<s> á
-2.673668	<s> é
-3.694857	<s> í
-3.819796	<s> ó
-2.827095	<s> ú
-0.4732742	a </s>
-3.963486	a a
-1.455091	a b
-1.343141	a c
-1.112962	a d
-2.823606	a e
-2.492194	a f
-2.082672	a g
-2.555246	a h
-2.703414	a i
-2.112227	a j
-3.361426	a k
-1.11963	a l
-1.518193	a m
-1.051689	a n
-3.407183	a o
-1.93818	a p
-2.50712	a q
-0.9973439	a r
-0.9798593	a s
-1.650885	a t
-2.160028	a u
-2.280439	a v
-4.060396	a w
-3.407183	a x
-2.073624	a y
-2.218411	a z
-4.361425	a ç
-3.884304	a é
-2.569034	a í
-1.969609	a ñ
-3.019003	a ú
-2.506505	b </s>
-0.5926912	b a
-3.108565	b b
-2.669232	b c
-3.409595	b d
-1.052614	b e
-3.710625	b f
-3.409595	b h
-0.7994674	b i
-2.248227	b j
-0.9010653	b l
-3.710625	b n
-1.210938	b o
-0.7568653	b r
-1.742142	b s
-2.480176	b t
-1.35269	b u
-2.932474	b v
-2.564497	b á
-2.506505	b é
-1.434163	b í
-2.279261	b ó
-2.534534	b ú
-2.697603	c </s>
-0.7815251	c a
-4.241671	c b
-1.816789	c c
-3.338581	c d
-1.087551	c e
-3.542701	c f
-3.940641	c g
-1.388581	c h
-0.6347525	c i
-3.241671	c k
-1.708917	c l
-4.241671	c m
-2.485796	c n
-0.5896181	c o
-3.940641	c q
-1.540967	c r
-3.639611	c s
-1.293747	c t
-1.111016	c u
-4.241671	c v
-2.517395	c á
-2.710192	c é
-2.05698	c í
-2.077318	c ó
-3.76455	c ú
-1.393926	d </s>
-0.8580549	d a
-4.289901	d b
-0.3327248	d e
-3.988871	d g
-3.81278	d h
-1.013209	d i
-3.444803	d j
-4.289901	d l
-2.758422	d m
-4.289901	d n
-0.7086341	d o
-3.248508	d q
-1.87326	d r
-3.590931	d s
-3.988871	d t
-1.556704	d u
-2.842743	d v
-4.289901	d w
-4.289901	d y
-3.034628	d á
-2.721699	d é
-1.988871	d í
-2.60866	d ó
-3.21072	d ú
-0.5491911	e </s>
-1.998625	e a
-2.243827	e b
-1.421439	e c
-1.737824	e d
-2.855095	e e
-2.206038	e f
-1.762675	e g
-3.319982	e h
-2.603283	e i
-2.172563	e j
-4.399163	e k
-0.9934752	e l
-1.589603	e m
-0.7956938	e n
-2.386326	e o
-2.185645	e p
-2.557178	e q
-0.9598303	e r
-0.8219585	e s
-1.821671	e t
-2.68316	e u
-1.985026	e v
-4.700193	e w
-2.018952	e x
-2.952005	e y
-2.224522	e z
-4.700193	e á
-4.700193	e é
-3.168714	e í
-2.390563	e ñ
-3.524102	e ó
-4.001223	e ú
-2.125037	f </s>
-1.006562	f a
-3.46746	f b
-3.16643	f d
-0.7907665	f e
-2.513218	f f
-0.5970562	f i
-1.610128	f l
-3.46746	f m
-0.8922723	f o
-3.16643	f p
-1.006562	f r
-3.46746	f s
-2.212188	f t
-0.8075439	f u
-1.948946	f á
-2.188706	f é
-1.575366	f í
-2.291369	f ó
-2.353517	f ú
-2.283712	g </s>
-0.6718925	g a
-3.325105	g d
-1.019754	g e
-2.450044	g h
-1.010185	g i
-3.626135	g k
-1.728508	g l
-2.626135	g m
-1.701856	g n
-0.8415177	g o
-0.8436624	g r
-2.927165	g s
-2.422015	g t
-0.7407737	g u
-2.057933	g á
-3.024075	g é
-1.910132	g í
-1.954037	g ó
-1.546954	g ú
-2.512192	g ü
-2.273069	h </s>
-0.3029414	h a
-1.010758	h e
-3.503518	h f
-3.503518	h g
-1.019218	h i
-3.202488	h k
-3.503518	h l
-0.6966603	h o
-2.389575	h r
-3.503518	h s
-2.600428	h t
-1.213484	h u
-2.804548	h w
-2.299398	h á
-2.424337	h é
-1.860066	h í
-2.65842	h ó
-3.202488	h ú
-1.728706	i </s>
-1.104951	i a
-1.712567	i b
-1.011551	i c
-1.040707	i d
-1.044093	i e
-1.927634	i f
-1.573418	i g
-3.681983	i h
-2.284043	i j
-3.681983	i k
-1.416693	i l
-1.359763	i m
-0.9544412	i n
-1.136923	i o
-1.927634	i p
-2.699711	i q
-1.406441	i r
-1.147956	i s
-1.369382	i t
-2.441433	i u
-1.518225	i v
-4.079923	i w
-3.778893	i x
-3.204861	i y
-1.77998	i z
-3.267009	i á
-2.158236	i é
-2.768169	i ñ
-1.18257	i ó
-4.380952	i ú
-2.049516	j </s>
-0.6011667	j a
-0.6706992	j e
-1.595258	j i
-3.16346	j j
-2.86243	j n
-0.5219854	j o
-0.8391771	j u
-2.16346	j á
-2.017332	j é
-3.16346	j í
-1.54021	j ó
-0.8616973	k </s>
-0.6359183	k a
-2.20412	k b
-0.8423921	k e
-1.90309	k f
-0.6478175	k i
-2.20412	k l
-2.20412	k m
-2.20412	k n
-1.30103	k o
-2.20412	k r
-1.90309	k s
-1.50515	k u
-2.20412	k w
-1.90309	k y
-2.20412	k í
-0.6272452	l </s>
-0.5574415	l a
-3.056028	l b
-2.453968	l c
-2.357058	l d
-0.9339758	l e
-3.014635	l f
-1.900692	l g
-4.056028	l h
-1.186796	l i
-4.357058	l j
-4.056028	l k
-1.336697	l l
-2.094607	l m
-3.658088	l n
-0.8334413	l o
-2.777274	l p
-2.777274	l q
-3.754998	l r
-2.666862	l s
-1.659828	l t
-1.70096	l u
-2.239786	l v
-4.357058	l w
-3.357058	l y
-3.014635	l z
-2.586206	l á
-2.274272	l é
-1.938756	l í
-2.201722	l ó
-3.658088	l ú
-2.178004	m </s>
-0.7304089	m a
-1.234774	m b
-3.552141	m c
-3.728232	m d
-0.7109899	m e
-0.8445706	m i
-4.029262	m j
-2.883134	m l
-2.987869	m m
-2.497783	m n
-0.7874666	m o
-0.9715959	m p
-3.126172	m s
-3.184164	m t
-1.216349	m u
-3.728232	m y
-4.029262	m z
-1.293663	m á
-2.23687	m é
-2.273387	m í
-2.209718	m ó
-2.552141	m ú
-0.5130793	n </s>
-0.9829715	n a
-3.355116	n b
-1.240894	n c
-1.150318	n d
-1.259947	n e
-2.031177	n f
-1.985591	n g
-3.392905	n h
-1.328107	n i
-2.744101	n j
-3.656146	n k
-3.656146	n l
-2.307193	n m
-3.019324	n n
-1.048691	n o
-4.434298	n p
-2.377393	n q
-2.957176	n r
-1.52314	n s
-0.7894651	n t
-1.827916	n u
-2.002934	n v
-4.133267	n x
-3.434297	n y
-2.255321	n z
-3.019324	n á
-2.821513	n é
-2.413108	n í
-2.452026	n ó
-2.811048	n ú
-0.4699244	o </s>
-3.014612	o a
-1.701537	o b
-1.576268	o c
-1.652885	o d
-2.771574	o e
-2.281716	o f
-2.152406	o g
-3.121822	o h
-2.928698	o i
-2.524127	o j
-3.56552	o k
-1.438055	o l
-1.322482	o m
-0.8862939	o n
-2.975694	o o
-1.87434	o p
-2.917702	o q
-0.9555699	o r
-0.7136503	o s
-1.672807	o t
-2.988283	o u
-2.27425	o v
-3.616673	o w
-3.014612	o x
-2.250249	o y
-2.700218	o z
-4.519763	o á
-4.218732	o é
-3.343671	o í
-3.158035	o ñ
-2.598917	p </s>
-0.6710727	p a
-4.01389	p b
-2.582526	p c
-4.01389	p d
-0.7826754	p e
-3.536769	p g
-1.30124	p i
-4.01389	p k
-1.271165	p l
-3.41183	p n
-0.6288203	p o
-2.899947	p p
-0.7533417	p r
-2.582526	p s
-1.942008	p t
-1.173784	p u
-3.536769	p y
-3.31492	p z
-2.457587	p á
-2.837799	p é
-2.633679	p í
-2.323694	p ó
-2.495376	p ú
-2.576687	q </s>
-0.001383472	q u
-0.8249221	r </s>
-0.7095709	r a
-2.520104	r b
-1.85685	r c
-1.798858	r d
-0.7358999	r e
-2.72882	r f
-1.946073	r g
-4.400918	r h
-1.023976	r i
-3.622766	r j
-3.446675	r k
-2.041082	r l
-1.611337	r m
-1.875873	r n
-0.9201924	r o
-2.405282	r p
-2.280344	r q
-1.570329	r r
-1.68408	r s
-1.411468	r t
-1.806525	r u
-2.23955	r v
-4.400918	r w
-4.400918	r x
-3.798858	r y
-2.531686	r z
-4.400918	r Í
-1.794536	r á
-3.446675	r ç
-2.668524	r é
-1.791323	r í
-2.202261	r ó
-3.170469	r ú
-0.326864	s </s>
-1.319518	s a
-3.16863	s b
-1.768092	s c
-2.342555	s d
-0.9771791	s e
-2.474025	s f
-2.96451	s g
-2.96451	s h
-1.123698	s i
-4.16863	s j
-3.428267	s k
-2.588846	s l
-2.011778	s m
-3.428267	s n
-1.234637	s o
-1.620241	s p
-2.889876	s q
-3.16863	s r
-3.428267	s s
-0.9759232	s t
-1.247985	s u
-3.293569	s v
-4.46966	s w
-3.293569	s á
-2.992539	s é
-2.35907	s í
-2.290683	s ó
-3.992539	s ú
-2.22413	t </s>
-0.6361639	t a
-2.949698	t b
-2.830512	t c
-4.228452	t d
-0.6449129	t e
-3.383354	t f
-3.383354	t h
-0.8557237	t i
-3.114508	t l
-3.082324	t m
-3.325362	t n
-0.7797454	t o
-0.8625895	t r
-3.114508	t s
-2.684384	t t
-1.342525	t u
-4.228452	t v
-4.228452	t w
-3.927422	t y
-3.325362	t z
-1.868616	t á
-2.325362	t é
-2.085437	t í
-2.010968	t ó
-2.84824	t ú
-1.316691	u </s>
-1.361617	u a
-1.861048	u b
-1.371973	u c
-1.697942	u d
-0.504444	u e
-2.380573	u f
-2.059947	u g
-3.591426	u h
-1.348388	u i
-2.103581	u j
-3.290396	u k
-1.357796	u l
-1.635979	u m
-0.7093289	u n
-2.46921	u o
-1.781867	u p
-3.239244	u q
-1.258483	u r
-1.28823	u s
-1.619455	u t
-3.114305	u u
-2.318425	u v
-3.892456	u x
-1.894633	u y
-2.602422	u z
-2.795546	u á
-2.089683	u é
-2.336154	u í
-2.963037	u ñ
-3.079543	u ó
-2.348419	v </s>
-0.6639965	v a
-3.578868	v d
-0.5556158	v e
-3.578868	v h
-0.5200629	v i
-3.277838	v k
-3.578868	v n
-0.8497036	v o
-3.578868	v s
-1.73377	v u
-2.675778	v á
-2.43274	v é
-1.634386	v í
-2.374748	v ó
-0.5254259	w a
-1.153815	w e
-1.755875	w h
-0.6097468	w i
-1.278754	w n
-1.056905	w o
-1.153815	w s
-1.755875	w ü
-1.270361	x </s>
-1.510121	x a
-1.186815	x c
-2.311754	x e
-2.311754	x h
-0.4444828	x i
-1.943777	x o
-0.6365868	x p
-2.788875	x q
-0.7096938	x t
-1.943777	x u
-2.487845	x v
-2.788875	x y
-2.487845	x í
-0.1023713	y </s>
-1.159829	y a
-3.051924	y b
-3.529045	y c
-1.376757	y e
-3.529045	y f
-3.228015	y g
-2.324925	y i
-3.228015	y k
-2.926985	y l
-3.228015	y m
-3.529045	y n
-1.208899	y o
-2.830075	y p
-3.228015	y s
-1.972743	y u
-3.051924	y w
-3.228015	y á
-3.228015	y í
-2.206826	y ó
-3.529045	y ú
-0.7849373	z </s>
-0.3312338	z a
-2.888741	z b
-1.576987	z c
-2.235528	z e
-2.189771	z g
-3.189771	z h
-2.11059	z i
-3.189771	z k
-2.71265	z l
-2.490801	z m
-1.441583	z n
-0.9320924	z o
-2.587711	z p
-2.41162	z q
-2.41162	z t
-1.566522	z u
-1.39043	z z
-1.684621	z á
-3.189771	z í
-1.344673	z ó
-2.490801	z ü
-0.30103	Á v
-0.4771213	É l
-0.4771213	É s
-0.30103	Í t
-0.30103	Ó m
-0.30103	Ú l
-0.6657431	á </s>
-1.871095	á b
-1.235794	á c
-2.912488	á d
-1.934764	á f
-1.622453	á g
-3.213518	á i
-2.611458	á j
-1.350195	á l
-1.871095	á m
-0.7496248	á n
-2.213518	á p
-2.259275	á q
-1.55076	á r
-0.484353	á s
-1.421126	á t
-2.611458	á u
-2.213518	á v
-2.099574	á x
-2.912488	á y
-3.213518	á z
-0.03778856	ç a
-0.7777351	é </s>
-2.240133	é a
-2.115194	é b
-0.9768916	é c
-1.675862	é d
-2.018284	é f
-1.814164	é g
-2.173186	é i
-1.013963	é l
-1.976892	é m
-0.7172543	é n
-2.717254	é o
-1.763012	é p
-3.018284	é q
-1.059243	é r
-0.8087693	é s
-1.277922	é t
-1.939103	é u
-1.763012	é x
-0.9868299	í </s>
-0.2871085	í a
-2.309049	í b
-1.321058	í c
-1.511593	í d
-2.174351	í e
-1.669201	í f
-2.350442	í g
-3.049412	í j
-3.049412	í l
-1.458347	í m
-1.463951	í n
-1.651472	í o
-2.309049	í p
-2.651472	í q
-1.888044	í r
-1.049412	í s
-1.317018	í t
-2.27126	í v
-0.4888824	ñ a
-1.327221	ñ e
-1.781479	ñ i
-0.2589346	ñ o
-2.895422	ñ u
-2.594393	ñ á
-1.533695	ñ í
-1.749295	ñ ó
-0.5110278	ó </s>
-3.464787	ó b
-2.619689	ó c
-2.234339	ó d
-2.862728	ó f
-1.595556	ó g
-2.987666	ó j
-1.315568	ó l
-1.392905	ó m
-0.2910187	ó n
-2.686636	ó p
-1.946274	ó r
-1.946274	ó s
-2.561697	ó t
-1.885004	ó v
-2.049814	ó x
-1.183917	ú </s>
-1.423677	ú a
-1.255273	ú b
-2.225309	ú c
-2.70243	ú d
-2.225309	ú e
-2.401401	ú g
-2.100371	ú h
-2.70243	ú j
-0.7993405	ú l
-1.134229	ú m
-0.342595	ú n
-1.857332	ú p
-2.70243	ú r
-1.287457	ú s
-1.556303	ú t
-0.4771213	ü e
-1.380211	ü i
-0.6812412	ü l
-1.380211	ü r
-0.7781513	ü í

\end\
