
\data\
ngram 1=39
ngram 2=740
ngram 3=4202

\1-grams:
-0.7699062	</s>
-99	<s>	-2.616782
-5.36786	<unk>
-5.670497	XX	-0.2201808
-5.369467	YY	-0.2201785
-1.006438	a	-1.147301
-1.960211	b	-1.231688
-1.427832	c	-1.417642
-1.378951	d	-1.951504
-0.9685754	e	0.9426594
-2.203778	f	-1.328583
-2.044362	g	-1.380028
-2.16848	h	-1.592933
-1.288426	i	-1.641809
-2.508531	j	-1.677908
-3.512135	k	-0.2835811
-1.311858	l	-0.3496647
-1.640302	m	-1.650076
-1.235306	n	-0.2123396
-1.149268	o	-0.8962023
-1.655012	p	-1.402329
-2.091858	q	-3.179163
-1.267978	r	-0.121496
-1.199675	s	-1.139407
-1.44079	t	-1.475256
-1.476455	u	0.2065303
-2.092202	v	-1.853423
-3.980301	w	-0.5879396
-2.891623	x	-1.17127
-2.142095	y	-1.448806
-2.48609	z	-1.126667
-2.460982	á	-1.37515
-4.629105	ç	-1.034133
-2.658504	é	-0.9337388
-2.322777	í	-1.16341
-2.776181	ñ	-1.790654
-2.206306	ó	-1.872042
-2.978532	ú	-0.8235612
-4.391744	ü	-0.5466682

\2-grams:
-4.900771	<s> XX
-4.900771	<s> YY
-1.1264	<s> a	0.5497816
-1.890047	<s> b	-0.4892823
-1.098271	<s> c	0.1212423
-0.9402528	<s> d	-0.5174844
-0.9155693	<s> e	-1.112072
-1.75186	<s> f	-0.2279034
-1.941253	<s> g	-0.7782171
-1.560129	<s> h	-0.5993298
-1.700468	<s> i	-1.339723
-2.42365	<s> j	-0.2358595
-3.176495	<s> k	0.01266897
-1.00408	<s> l	-1.517391
-1.363078	<s> m	-0.2149411
-1.576695	<s> n	-1.653037
-1.755886	<s> o	0.1008723
-1.102397	<s> p	-0.843757
-1.416329	<s> q	-0.9848976
-1.620193	<s> r	-1.700341
-1.146805	<s> s	-2.086974
-1.497308	<s> t	0.2738204
-1.536596	<s> u	-1.538814
-1.761522	<s> v	-0.313064
-3.599741	<s> w	-0.1393898
-4.201801	<s> x	-0.2755828
-1.504572	<s> y	-1.027518
-2.82159	<s> z	-0.6873032
-3.332569	<s> á	-0.2212927
-2.665243	<s> é	-0.9199468
-3.696651	<s> í	-0.4934814
-3.786828	<s> ó	-0.5962364
-2.817986	<s> ú	-1.375268
-0.30103	XX </s>
-0.60206	YY </s>
-0.60206	YY YY
-0.4738881	a </s>
-3.96539	a a	-0.02640307
-1.454577	a b	-0.5391027
-1.343591	a c	0.06815636
-1.112788	a d	0.3281591
-2.825511	a e	-0.08606941
-2.494098	a f	0.2477853
-2.082297	a g	-0.3615929
-2.55377	a h	-1.083798
-2.705318	a i	-0.486002
-2.110477	a j	-0.07716656
-3.36333	a k	-0.1972805
-1.117941	a l	0.1076512
-1.518853	a m	0.1260635
-1.05253	a n	-0.4243065
-3.409087	a o	-0.1957193
-1.938448	a p	0.3000535
-2.509024	a q	0.3413246
-0.9964402	a r	-0.1882539
-0.9799634	a s	-0.3020101
-1.648162	a t	0.2899731
-2.15921	a u	-0.9899198
-2.280545	a v	0.3654633
-4.0623	a w	-0.5451552
-3.409087	a x	-0.7686321
-2.072183	a y	0.2699608
-2.220315	a z	-0.3708622
-4.36333	a ç	0.60206
-3.886209	a é	-0.2157837
-2.56745	a í	-0.5930728
-1.968004	a ñ	0.1954334
-3.020907	a ú	-0.925377
-2.508109	b </s>
-0.5929728	b a	-0.3751526
-3.110169	b b
-2.670836	b c	-0.3734533
-3.411199	b d	-0.4328464
-1.054217	b e	-0.3482901
-3.712229	b f
-3.411199	b h
-0.8000066	b i	-0.5166767
-2.235107	b j	-1.386896
-0.9013244	b l	-1.704511
-3.712229	b n
-1.205724	b o	-0.01863146
-0.7570221	b r	-1.505481
-1.743746	b s	-0.6721423
-2.48178	b t	-0.3930507
-1.350501	b u	-0.3168701
-2.934078	b v	0.0242528
-2.566101	b á	-0.7116452
-2.508109	b é	-0.1436213
-1.435767	b í	-1.26955
-2.280865	b ó	-0.4604177
-2.536137	b ú	-0.6688846
-2.699243	c </s>
-0.7818124	c a	-0.02039671
-4.243311	c b
-1.813559	c c	-1.590066
-3.340221	c d	0.03001192
-1.087975	c e	-0.6142019
-3.544341	c f	-0.2980746
-3.942281	c g	-0.4753802
-1.388398	c h	0.1996348
-0.6344641	c i	-0.8552448
-3.243311	c k	-0.06069782
-1.710557	c l	-1.067313
-4.243311	c m
-2.487436	c n	-0.9197523
-0.589809	c o	-0.3012692
-3.942281	c q	-0.4759745
-1.536593	c r	-0.9415842
-3.641251	c s	-0.1200797
-1.293921	c t	-0.4900135
-1.111692	c u	-0.8594654
-4.243311	c v
-2.519035	c á	-0.2887659
-2.711832	c é	-0.4459268
-2.058619	c í	-0.7009414
-2.075994	c ó	-0.000197649
-3.76619	c ú
-1.393376	d </s>
-0.8584911	d a	-0.4731704
-4.292101	d b
-0.3323919	d e	-0.991231
-3.991071	d g
-3.81498	d h	-0.2200786
-1.013576	d i	-0.2821212
-3.447003	d j	-0.3296562
-4.292101	d l
-2.760622	d m	-1.012362
-4.292101	d n
-0.7089022	d o	-0.9039835
-3.250708	d q	1.420506
-1.87546	d r	-0.9773256
-3.593131	d s	-0.216522
-3.991071	d t	-0.4745072
-1.554908	d u	-1.111709
-2.844943	d v	-0.5128664
-4.292101	d w
-4.292101	d y
-3.036829	d á	-0.2949574
-2.723899	d é	-0.3466096
-1.991071	d í	-0.5432938
-2.61086	d ó	-0.0616169
-3.21292	d ú	-0.6398367
-0.5492458	e </s>
-1.997198	e a	-0.2747728
-2.24584	e b	-0.1706825
-1.421173	e c	-0.2158237
-1.736534	e d	0.1587692
-2.857108	e e	-0.1039057
-2.199779	e f	-0.2280437
-1.762188	e g	-0.4937661
-3.321995	e h	-0.2089078
-2.605296	e i	-0.554641
-2.174577	e j	0.06841266
-4.401176	e k
-0.9938706	e l	-0.7426605
-1.585267	e m	-0.2063369
-0.7960331	e n	-0.4261279
-2.365747	e o	-0.4269598
-2.187659	e p	0.5390798
-2.559192	e q	0.353559
-0.9606609	e r	-0.1744547
-0.8222508	e s	0.03895569
-1.819113	e t	0.1260217
-2.681017	e u	-0.7988927
-1.986203	e v	0.3173463
-4.702207	e w
-2.020965	e x	-0.08872604
-2.954018	e y	-0.5022075
-2.226535	e z	-0.7077718
-4.702207	e á
-4.702207	e é
-3.170727	e í	-0.06755406
-2.388339	e ñ	-0.1139916
-3.526115	e ó	0.1939406
-4.003236	e ú	-0.1077173
-2.127252	f </s>
-1.007277	f a	-0.3078544
-3.469675	f b
-3.168645	f d	-0.4770769
-0.7920678	f e	-0.3432094
-2.515432	f f	-0.3967898
-0.5969359	f i	-0.8702481
-1.612342	f l	-0.7613747
-3.469675	f m
-0.8910356	f o	-0.4932711
-3.168645	f p	-0.4759909
-1.005782	f r	-1.075039
-3.469675	f s
-2.214402	f t	-0.3320753
-0.8059738	f u	-1.039339
-1.951161	f á	-0.6602421
-2.190921	f é	-0.8944494
-1.57758	f í	-0.3973362
-2.293584	f ó	-0.608355
-2.355731	f ú	-0.5924435
-2.285864	g </s>
-0.6730802	g a	-0.3652811
-3.327257	g d	-0.412367
-1.017627	g e	-0.5692075
-2.452195	g h	-0.883752
-1.009193	g i	-0.4294281
-3.628287	g k
-1.73066	g l	-0.6316246
-2.628287	g m	-0.2987704
-1.698868	g n	-0.8554844
-0.8422455	g o	-0.5169753
-0.8436694	g r	-1.433158
-2.929317	g s	-0.1555934
-2.397838	g t	-0.8958614
-0.7406694	g u	-0.8557714
-2.060085	g á	-1.028847
-3.026227	g é	-0.277595
-1.912283	g í	-0.6085216
-1.947045	g ó	-0.07560056
-1.549106	g ú	-1.461483
-2.514343	g ü	-0.30103
-2.274158	h </s>
-0.302391	h a	-0.6834567
-1.011846	h e	-0.04550755
-3.504607	h f
-3.504607	h g
-1.020307	h i	-0.4810164
-3.203577	h k
-3.504607	h l
-0.6970717	h o	-0.5071235
-2.390663	h r	-0.6219355
-3.504607	h s
-2.601517	h t	-0.5202646
-1.212351	h u	-0.4946913
-2.805637	h w	-0.6557449
-2.300487	h á	-0.5062073
-2.425426	h é	-0.4814549
-1.861154	h í	-0.5858423
-2.659509	h ó	-0.3165461
-3.203577	h ú	-0.4433554
-1.730383	i </s>
-1.10502	i a	-0.7988757
-1.714243	i b	-0.2706468
-1.011931	i c	-0.1695318
-1.040009	i d	-0.08859873
-1.043974	i e	-0.8611664
-1.926263	i f	-0.340591
-1.571725	i g	-0.3044218
-3.683659	i h	-0.1605613
-2.278826	i j	-0.371333
-3.683659	i k	0.005070388
-1.41837	i l	-0.1386274
-1.359789	i m	-0.691644
-0.9540086	i n	-0.07630622
-1.137363	i o	-0.464213
-1.926263	i p	0.3952813
-2.701388	i q	0.8094909
-1.405821	i r	-0.2019676
-1.148365	i s	0.01641309
-1.370636	i t	0.3136287
-2.44311	i u	-0.8990209
-1.516933	i v	-0.09260917
-4.081599	i w	-0.4372497
-3.780569	i x	-0.1076511
-3.206538	i y	-1.20207
-1.778403	i z	-0.6539586
-3.268686	i á	-0.2792846
-2.159913	i é	-1.07877
-2.769845	i ñ	0.02020329
-1.1826	i ó	-1.306174
-4.382629	i ú
-2.051598	j </s>
-0.60206	j a	-0.1878303
-0.6699967	j e	-0.6019995
-1.597339	j i	-0.3621528
-3.165541	j j
-2.864511	j n	-0.474982
-0.5201188	j o	-0.6267825
-0.8412586	j u	-0.5115079
-2.165541	j á	-0.2950341
-2.019413	j é	-0.4919901
-3.165541	j í
-1.542292	j ó	-0.39794
-0.8616973	k </s>
-0.6359183	k a	-0.1941111
-2.20412	k b
-0.8423921	k e	-0.04357076
-1.90309	k f	-0.4032969
-0.6478175	k i	-0.5855191
-2.20412	k l
-2.20412	k m
-2.20412	k n
-1.30103	k o	-0.4157877
-2.20412	k r
-1.90309	k s
-1.50515	k u	-0.2557774
-2.20412	k w
-1.90309	k y	0.2014943
-2.20412	k í
-0.6265128	l </s>
-0.557276	l a	-0.8962271
-3.058198	l b	-0.3120517
-2.456138	l c	-0.5982717
-2.359228	l d	0.3710127
-0.9330423	l e	0.01208782
-3.016805	l f	-0.4321539
-1.902862	l g	-0.8805375
-4.058198	l h
-1.186917	l i	-0.3531328
-4.359228	l j
-4.058198	l k
-1.338453	l l	-1.385232
-2.096777	l m	-0.7292299
-3.660258	l n	-0.349032
-0.834313	l o	-0.8745219
-2.779445	l p	-0.8931781
-2.779445	l q	0.9086224
-3.757168	l r	-0.6106987
-2.669032	l s	-0.2787479
-1.660258	l t	-0.06214547
-1.702172	l u	-0.2943962
-2.241957	l v	0.1008687
-4.359228	l w
-3.359228	l y	-0.3669528
-3.016805	l z	-0.2962435
-2.588376	l á	-0.08808756
-2.276443	l é	-0.4541863
-1.937624	l í	0.1192211
-2.19786	l ó	-0.2381513
-3.660258	l ú	-0.2967342
-2.179867	m </s>
-0.730965	m a	0.1037363
-1.236637	m b	-0.5871849
-3.554004	m c	-0.2209798
-3.730096	m d	-0.4592013
-0.7118112	m e	-0.7123015
-0.8458668	m i	-0.546308
-4.031126	m j
-2.884998	m l	-0.2896195
-2.989733	m m	-0.2082239
-2.499647	m n	-0.6043971
-0.7885842	m o	-0.4966992
-0.9647996	m p	-0.5175614
-3.128036	m s	-0.06555054
-3.186028	m t	-0.3949916
-1.216212	m u	-0.9282419
-3.730096	m y	-0.4461249
-4.031126	m z
-1.293138	m á	-1.098689
-2.238734	m é	-0.6121688
-2.267698	m í	-0.01082128
-2.211582	m ó	-0.1249387
-2.554004	m ú	-0.5659779
-0.5130635	n </s>
-0.9835919	n a	-0.7601204
-3.356504	n b	-0.4191895
-1.241448	n c	-0.8349309
-1.149229	n d	0.06250072
-1.260173	n e	-0.1389824
-2.032565	n f	-0.1214889
-1.986979	n g	-0.133265
-3.394292	n h	0.1512677
-1.327797	n i	0.4344274
-2.745489	n j	-0.8322528
-3.657534	n k	-0.1005141
-3.657534	n l	-0.1143172
-2.30858	n m	-0.631205
-3.020712	n n	-0.3666273
-1.049008	n o	-0.3903109
-4.435685	n p
-2.371227	n q	1.506986
-2.958564	n r	-0.2287632
-1.522401	n s	-0.03598571
-0.7889874	n t	-0.6131864
-1.829304	n u	-0.3956451
-2.004321	n v	0.3314875
-4.134655	n x	-0.4531691
-3.435685	n y	0.2636422
-2.256708	n z	-0.7969203
-3.020712	n á	-0.1730321
-2.822901	n é	-0.4888074
-2.414496	n í	-0.5039536
-2.453414	n ó	-0.2604121
-2.802217	n ú	-0.7707609
-0.4696724	o </s>
-3.016485	o a	-0.234219
-1.699467	o b	-0.287598
-1.577646	o c	0.2010255
-1.654167	o d	0.044613
-2.76576	o e	-0.4300074
-2.281086	o f	-0.04378498
-2.152419	o g	-0.3531943
-3.123695	o h	-0.3983746
-2.93057	o i	-0.5262823
-2.526	o j	0.4883392
-3.567392	o k	-0.3710678
-1.438491	o l	0.365176
-1.323803	o m	0.1296688
-0.8863522	o n	0.1957309
-2.953433	o o	-0.4417143
-1.875231	o p	0.2773932
-2.919575	o q	0.8869032
-0.954844	o r	-0.8379811
-0.7138293	o s	-1.351377
-1.673446	o t	-0.1325531
-2.990156	o u	-0.2782825
-2.273662	o v	0.107695
-3.618545	o w	-0.3824278
-3.016485	o x	-0.6235517
-2.252122	o y	0.2710923
-2.702091	o z	-0.2512229
-4.521635	o á
-4.220605	o é	-0.3981888
-3.345544	o í	-0.305933
-3.159907	o ñ	-0.1894109
-2.585126	p </s>
-0.6699415	p a	-0.2536918
-4.01649	p b
-2.585126	p c	-1.332505
-4.01649	p d
-0.7847657	p e	-0.6501122
-3.539369	p g	-0.5998055
-1.30216	p i	-0.4253479
-4.01649	p k
-1.264442	p l	-1.263654
-3.41443	p n	-0.2967086
-0.6287445	p o	-0.5442936
-2.870362	p p	-0.4090441
-0.7538018	p r	-1.767322
-2.585126	p s	-0.3891442
-1.944608	p t	-0.3602377
-1.175757	p u	-0.9415379
-3.539369	p y	-0.221593
-3.31752	p z	-0.3646036
-2.460188	p á	-0.2843286
-2.840399	p é	-0.6082379
-2.636279	p í	-0.3041128
-2.326294	p ó	0.01020521
-2.497976	p ú	-0.9054346
-2.578868	q </s>
-0.001376529	q u	-2.440156
-0.8254795	r </s>
-0.7080425	r a	0.06741405
-2.522273	r b	-0.6609776
-1.854083	r c	-0.6131747
-1.799942	r d	0.1457244
-0.7353531	r e	-0.2035923
-2.730988	r f	-0.6252853
-1.94672	r g	-0.6930907
-4.403086	r h
-1.02487	r i	-0.1877383
-3.624935	r j	-0.1597693
-3.448844	r k	-0.2730013
-2.043251	r l	-0.9111106
-1.610695	r m	-1.176979
-1.876747	r n	-1.271401
-0.9197842	r o	0.642242
-2.407451	r p	0.4983385
-2.279235	r q	0.3725822
-1.572497	r r	-1.382285
-1.686248	r s	-0.2947618
-1.412747	r t	-1.002018
-1.80759	r u	0.2758245
-2.238733	r v	-0.09518993
-4.403086	r w
-4.403086	r x
-3.801026	r y	-0.02035445
-2.533854	r z	-0.4683816
-1.795631	r á	-0.3354868
-3.448844	r ç	0.07918119
-2.670692	r é	-0.5072448
-1.792426	r í	-0.7277717
-2.204429	r ó	-0.03924656
-3.172637	r ú	-0.5084502
-0.3266112	s </s>
-1.319878	s a	-0.3384972
-3.170218	s b	-0.1638894
-1.768817	s c	-0.4995917
-2.340914	s d	-0.8361099
-0.9769539	s e	-0.04257035
-2.471248	s f	-0.08390474
-2.966098	s g	-0.457895
-2.966098	s h	-0.1588586
-1.123528	s i	-0.5616813
-4.170218	s j	-0.4732476
-3.429855	s k	-0.1055102
-2.584757	s l	-0.6593148
-2.013366	s m	-0.9520475
-3.429855	s n	-0.4059496
-1.234962	s o	-0.3586514
-1.620601	s p	-0.3498898
-2.891464	s q	0.9086224
-3.170218	s r	-0.7706302
-3.429855	s s	-0.03933752
-0.9758421	s t	-0.4867713
-1.249573	s u	-0.4636955
-3.295156	s v	-0.124167
-4.471248	s w
-3.295156	s á	-0.2900245
-2.994126	s é	-0.7409581
-2.360658	s í	-0.843881
-2.292271	s ó	-0.5641419
-3.994126	s ú	-0.2158228
-2.221772	t </s>
-0.6362008	t a	-0.6332896
-2.951619	t b	-0.9720958
-2.832432	t c	-0.6775686
-4.230372	t d
-0.6452501	t e	-0.4695747
-3.385274	t f	-0.899838
-3.385274	t h	-0.001356721
-0.8547087	t i	-0.2306653
-3.116429	t l	-0.4737148
-3.084244	t m	-0.4460825
-3.327282	t n	-0.162985
-0.7804313	t o	-0.3475811
-0.8617136	t r	-1.959399
-3.116429	t s	-0.2133141
-2.686304	t t	-0.3379624
-1.343318	t u	-1.072554
-4.230372	t v
-4.230372	t w
-3.929342	t y
-3.327282	t z	-0.006116897
-1.868644	t á	-0.4664857
-2.327282	t é	-0.4791153
-2.087358	t í	0.3614517
-2.010264	t ó	-0.1615856
-2.850161	t ú	-0.5636826
-1.318108	u </s>
-1.361756	u a	-0.1477096
-1.860449	u b	0.5667218
-1.370777	u c	-0.02170968
-1.699358	u d	-0.0692656
-0.5035559	u e	-0.8819873
-2.381989	u f	-0.5771552
-2.058182	u g	-0.1685233
-3.592843	u h	-0.2987137
-1.349185	u i	-0.2327015
-2.101481	u j	-0.5249081
-3.291813	u k	-0.2750233
-1.359212	u l	0.4023299
-1.636194	u m	-0.09290874
-0.7100337	u n	-0.9687543
-2.470627	u o	-0.7770342
-1.783283	u p	0.3470976
-3.24066	u q	1.499687
-1.257887	u r	0.2276745
-1.288568	u s	-0.1719562
-1.619715	u t	0.07243693
-3.115721	u u	-1.092547
-2.319841	u v	-0.8594469
-3.893873	u x
-1.891707	u y	0.165192
-2.603838	u z	-0.2763485
-2.796963	u á	-0.7358402
-2.091099	u é	-1.342583
-2.33757	u í	-0.4779799
-2.964454	u ñ	0.2894867
-3.080959	u ó	-0.9855529
-2.349563	v </s>
-0.6640849	v a	-0.2609519
-3.580012	v d
-0.5559371	v e	-0.5074371
-3.580012	v h
-0.5204487	v i	-0.2987363
-3.278982	v k	-0.4548449
-3.580012	v n
-0.8476183	v o	-1.206595
-3.580012	v s
-1.734914	v u	-0.8990347
-2.676922	v á	-0.3300748
-2.433884	v é	-0.2167025
-1.635529	v í	-0.4096702
-2.375892	v ó	-1.069874
-0.5254259	w a	0.000423491
-1.153815	w e	-0.145049
-1.755875	w h
-0.6097468	w i	-0.2654134
-1.278754	w n	-0.2086057
-1.056905	w o	-0.4924465
-1.153815	w s	-0.1999436
-1.755875	w ü
-1.270361	x </s>
-1.510121	x a	-0.3833043
-1.186815	x c	-0.6455562
-2.311754	x e
-2.311754	x h	-0.5585014
-0.4444828	x i	-0.6399919
-1.943777	x o	-0.1211659
-0.6365868	x p	-0.3441035
-2.788875	x q
-0.7096938	x t	-0.2533005
-1.943777	x u	-0.8837861
-2.487845	x v
-2.788875	x y
-2.487845	x í	-0.4751833
-0.1021513	y </s>
-1.16188	y a	-0.8944878
-3.053974	y b
-3.531096	y c
-1.378807	y e	-0.5615087
-3.531096	y f
-3.230066	y g	-0.4332788
-2.326976	y i	-0.9098705
-3.230066	y k	-0.4128804
-2.929036	y l	-0.38436
-3.230066	y m	-0.3833631
-3.531096	y n
-1.206813	y o	-0.8439264
-2.832125	y p	-0.7770209
-3.230066	y s	-0.2002491
-1.974793	y u	-0.8839011
-3.053974	y w	-0.5621885
-3.230066	y á
-3.230066	y í	-0.4747947
-2.208876	y ó	-1.181848
-3.531096	y ú
-0.7857781	z </s>
-0.3302738	z a	-0.5510293
-2.889582	z b
-1.577828	z c	-0.5644777
-2.236369	z e	-0.3742519
-2.190612	z g	-0.1768062
-3.190612	z h
-2.111431	z i	-0.3762478
-3.190612	z k
-2.71349	z l	-0.2131399
-2.491642	z m	-0.3364819
-1.442424	z n	-1.024629
-0.9329332	z o	-0.5147465
-2.588552	z p	-0.278813
-2.412461	z q	1.654589
-2.412461	z t	-0.3472421
-1.567363	z u	-0.566386
-1.391271	z z	-0.6063092
-1.685462	z á	-0.4731969
-3.190612	z í
-1.345514	z ó	-0.8107167
-2.491642	z ü	-0.6766936
-0.6673339	á </s>
-1.872686	á b	-0.5349259
-1.232837	á c	-1.144702
-2.914078	á d	-0.4328464
-1.936355	á f	-0.3789085
-1.624044	á g	-0.6957322
-3.215109	á i
-2.613049	á j	-0.5740313
-1.351786	á l	-0.5312566
-1.872686	á m	-0.2251446
-0.7497258	á n	-0.815848
-2.215109	á p	-1.019176
-2.260866	á q	1.499687
-1.552351	á r	-0.3466656
-0.4835198	á s	-1.377945
-1.422717	á t	-1.05251
-2.613049	á u	-0.1443221
-2.173716	á v	-0.4953523
-2.101165	á x	-0.9527491
-2.914078	á y	-0.4461249
-3.215109	á z
-0.03778856	ç a	-0.6349415
-0.7793974	é </s>
-2.241796	é a	-0.2072306
-2.116857	é b	-0.8793034
-0.978554	é c	-0.5528808
-1.677524	é d	-0.6546951
-2.019947	é f	-0.5695013
-1.815827	é g	-0.7334034
-2.174849	é i	-0.3178797
-1.007109	é l	-0.8591235
-1.978554	é m	-0.4729373
-0.7189167	é n	-0.815055
-2.718917	é o	-0.4610026
-1.764674	é p	-0.4908205
-3.019947	é q
-1.060905	é r	-0.3528609
-0.8051028	é s	-0.6026384
-1.279584	é t	-0.4589771
-1.940765	é u	-0.8126103
-1.764674	é x	-0.6305299
-0.9877978	í </s>
-0.2877012	í a	-1.806876
-2.310017	í b	-0.08406806
-1.322026	í c	-0.5931901
-1.506312	í d	-0.2838487
-2.175318	í e	-0.4917359
-1.670169	í f	-1.165558
-2.35141	í g	-0.2743506
-3.05038	í j
-3.05038	í l
-1.459315	í m	-0.6146677
-1.464919	í n	-0.3251058
-1.65244	í o	-0.8959575
-2.310017	í p	-0.4327259
-2.65244	í q	1.721536
-1.889012	í r	-0.5568515
-1.05038	í s	-0.5592969
-1.306087	í t	-1.174049
-2.272228	í v	-0.3591742
-0.4871055	ñ a	-0.5608022
-1.330523	ñ e	-0.3551087
-1.784782	ñ i	-0.2249568
-0.2592387	ñ o	-1.247802
-2.898725	ñ u
-2.597695	ñ á	-0.3920246
-1.536997	ñ í	-0.6060379
-1.752597	ñ ó	-0.1575046
-0.5099225	ó </s>
-3.466571	ó b
-2.621473	ó c	-0.1834837
-2.236122	ó d	-0.7573574
-2.864511	ó f	-0.01946776
-1.597339	ó g	-1.230715
-2.98945	ó j	-0.5909429
-1.317352	ó l	-1.090044
-1.391024	ó m	-0.4605721
-0.2913493	ó n	-1.857432
-2.68842	ó p	-0.574619
-1.948057	ó r	-0.5551362
-1.948057	ó s	-0.1590348
-2.563481	ó t	-0.2809896
-1.886788	ó v	-0.9245948
-2.051598	ó x	-1.237985
-1.18735	ú </s>
-1.42711	ú a	-0.7812864
-1.258706	ú b	-1.404153
-2.228742	ú c
-2.705864	ú d
-2.228742	ú e
-2.404834	ú g	-0.3900392
-2.103804	ú h	-0.6015841
-2.705864	ú j
-0.7867856	ú l	-1.317249
-1.12608	ú m	-0.8200557
-0.3460282	ú n	-1.44012
-1.860766	ú p	-0.4414422
-2.705864	ú r
-1.29089	ú s	-0.3517437
-1.559736	ú t	-0.8371598
-0.4771213	ü e	-0.2157505
-1.380211	ü i
-0.6812412	ü l	-0.7577579
-1.380211	ü r
-0.7781513	ü í	-0.6584659

\3-grams:
-0.6076186	<s> a </s>
-1.575014	<s> a b
-1.149045	<s> a c
-1.530898	<s> a d
-3.174351	<s> a e
-1.884316	<s> a f
-1.572291	<s> a g
-1.727193	<s> a h
-2.086215	<s> a i
-2.873321	<s> a j
-3.299289	<s> a k
-0.7695169	<s> a l
-1.462543	<s> a m
-1.153161	<s> a n
-1.345047	<s> a p
-1.76781	<s> a q
-1.418476	<s> a r
-1.454191	<s> a s
-1.538365	<s> a t
-1.409055	<s> a u
-1.937562	<s> a v
-3.475381	<s> a x
-1.963497	<s> a y
-2.299289	<s> a z
-3.174351	<s> a é
-3.174351	<s> a í
-1.424228	<s> a ñ
-2.142942	<s> a ú
-0.4259687	a a </s>
-0.5443928	b a </s>
-1.582388	b a b
-1.649335	b a c
-1.711483	b a d
-2.281358	b a i
-0.8834181	b a j
-1.223366	b a l
-2.126456	b a m
-0.7216224	b a n
-2.825426	b a o
-0.977237	b a r
-1.117856	b a s
-1.454358	b a t
-2.281358	b a u
-2.825426	b a z
-2.126456	b a ñ
-0.7592216	c a </s>
-2.987964	c a a
-1.260965	c a b
-1.535666	c a c
-1.090337	c a d
-2.186332	c a e
-2.318957	c a f
-3.164055	c a g
-3.164055	c a i
-2.033721	c a j
-1.193244	c a l
-1.086687	c a m
-1.01024	c a n
-2.863025	c a o
-1.456485	c a p
-0.845992	c a r
-0.8449492	c a s
-1.567458	c a t
-1.959935	c a u
-3.164055	c a v
-2.209813	c a y
-2.234636	c a z
-2.164055	c a í
-2.186332	c a ñ
-0.4280904	d a </s>
-1.880814	d a b
-2.261025	d a c
-0.5092327	d a d
-2.835056	d a e
-3.136086	d a f
-2.959995	d a g
-2.658965	d a i
-2.658965	d a k
-1.835056	d a l
-1.71284	d a m
-1.556303	d a n
-2.437116	d a p
-1.272763	d a r
-0.8619282	d a s
-1.846051	d a t
-2.114897	d a v
-2.959995	d a y
-3.136086	d a z
-2.658965	d a ñ
-0.6045583	e a </s>
-1.488053	e a b
-1.187023	e a c
-0.9550737	e a d
-2.24138	e a f
-1.815412	e a g
-0.8208746	e a l
-1.287138	e a m
-1.002498	e a n
-0.9626268	e a r
-1.24138	e a s
-1.815412	e a t
-1.708987	f a </s>
-1.125411	f a b
-0.9189367	f a c
-1.532896	f a e
-2.186108	f a g
-0.6179066	f a l
-0.8150405	f a m
-1.231866	f a n
-1.283018	f a r
-1.186108	f a s
-1.256689	f a t
-1.283018	f a v
-0.8561056	g a </s>
-1.548342	g a b
-1.329847	g a c
-0.8460442	g a d
-2.662286	g a j
-1.118217	g a l
-1.583104	g a m
-0.6868537	g a n
-0.7032441	g a r
-1.099993	g a s
-1.817187	g a t
-2.662286	g a y
-2.185164	g a z
-2.009073	g a ñ
-0.6379911	h a </s>
-0.7104354	h a b
-0.7259224	h a c
-1.845637	h a d
-2.605305	h a f
-2.165972	h a g
-2.605305	h a i
-2.061237	h a l
-1.976916	h a m
-1.025521	h a n
-1.573897	h a r
-0.9240638	h a s
-2.730244	h a u
-2.730244	h a v
-1.113943	h a y
-2.128184	h a z
-0.3331097	i a </s>
-2.025761	i a b
-1.582063	i a c
-1.268196	i a d
-2.678973	i a f
-2.326791	i a g
-1.86606	i a j
-0.7841037	i a l
-2.239641	i a m
-1.201852	i a n
-2.582063	i a p
-1.285398	i a r
-0.9485949	i a s
-1.762519	i a t
-0.6425441	j a </s>
-1.502882	j a b
-1.803912	j a c
-0.8261885	j a d
-2.104942	j a j
-1.980003	j a l
-1.405972	j a m
-1.037995	j a n
-1.134905	j a p
-2.281033	j a q
-0.7495545	j a r
-0.9485949	j a s
-2.104942	j a u
-1.176091	k a </s>
-0.4490925	k a n
-0.8081145	k a r
-1.352183	k a s
-0.9542425	k a t
-1.352183	k a w
-0.222122	l a </s>
-1.676284	l a b
-1.706479	l a c
-1.645026	l a d
-2.356231	l a g
-3.025238	l a j
-3.201329	l a l
-1.585905	l a m
-1.383433	l a n
-3.502359	l a o
-2.803389	l a p
-1.306459	l a r
-0.735203	l a s
-1.940066	l a t
-2.958291	l a u
-2.405449	l a v
-3.502359	l a x
-2.761996	l a y
-2.201329	l a z
-0.7098551	m a </s>
-1.962929	m a b
-1.280046	m a c
-1.024318	m a d
-2.82823	m a f
-1.642594	m a g
-2.703291	m a h
-3.004321	m a i
-2.703291	m a j
-1.244654	m a l
-1.890378	m a m
-0.7043785	m a n
-2.82823	m a p
-0.9269535	m a r
-1.004321	m a s
-1.31858	m a t
-3.004321	m a u
-2.82823	m a v
-2.82823	m a x
-1.271928	m a y
-3.004321	m a z
-1.907411	m a ñ
-0.3405385	n a </s>
-1.722756	n a b
-1.299814	n a c
-0.9582199	n a d
-2.85309	n a g
-2.85309	n a h
-2.85309	n a i
-2.13293	n a j
-1.017399	n a l
-1.963788	n a m
-1.541336	n a n
-1.162893	n a r
-1.0049	n a s
-1.64897	n a t
-2.341206	n a u
-2.224701	n a v
-3.154119	n a w
-2.093422	n a z
-0.7569619	o a </s>
-1	o a c
-1.30103	o a f
-0.69897	o a l
-0.90309	o a m
-1.30103	o a r
-1.124939	o a t
-1.470016	p a </s>
-2.309437	p a b
-1.447739	p a c
-1.493497	p a d
-1.989101	p a g
-2.873708	p a i
-2.572678	p a j
-1.373106	p a l
-2.309437	p a m
-1.626553	p a n
-1.81935	p a p
-2.396587	p a q
-0.2749175	p a r
-1.065272	p a s
-1.524755	p a t
-2.572678	p a u
-2.873708	p a v
-1.832315	p a z
-1.431751	p a í
-1.12038	p a ñ
-0.4322013	r a </s>
-1.396461	r a b
-1.311885	r a c
-1.13401	r a d
-2.22037	r a e
-2.235093	r a f
-2.141188	r a g
-2.852393	r a i
-2.551363	r a j
-2.743248	r a k
-1.245704	r a l
-1.684654	r a m
-0.9516357	r a n
-2.852393	r a o
-2.5214	r a p
-3.22037	r a q
-1.262922	r a r
-1.004644	r a s
-1.345308	r a t
-2.743248	r a u
-2.025393	r a v
-2.153423	r a y
-1.724363	r a z
-3.396461	r a ç
-2.493371	r a í
-2.493371	r a ñ
-0.5848873	s a </s>
-0.9993964	s a b
-1.495001	s a c
-1.089573	s a d
-1.981668	s a g
-2.555699	s a h
-1.856729	s a j
-0.9963909	s a l
-1.485661	s a m
-1.100854	s a n
-2.078578	s a p
-0.8882459	s a r
-0.9787819	s a s
-1.879005	s a t
-2.254669	s a v
-2.157759	s a y
-0.5812373	t a </s>
-1.289101	t a b
-1.409076	t a c
-1.011136	t a d
-2.994537	t a f
-2.254174	t a g
-2.181624	t a j
-1.056268	t a l
-1.173351	t a m
-0.9090681	t a n
-2.274378	t a p
-2.216386	t a q
-0.8873271	t a r
-1.041503	t a s
-2.216386	t a t
-2.274378	t a v
-2.596597	t a x
-2.482654	t a z
-2.517416	t a ñ
-1.264694	u a </s>
-2.367356	u a b
-1.264694	u a c
-1.201025	u a d
-2.543447	u a g
-2.145507	u a j
-0.5285068	u a l
-2.242417	u a m
-0.5726356	u a n
-2.367356	u a p
-0.9636636	u a r
-1.640357	u a s
-1.242417	u a t
-2.145507	u a v
-1.844477	u a y
-0.6072488	v a </s>
-1.811369	v a b
-1.217742	v a c
-1.086463	v a d
-2.323252	v a g
-2.448191	v a i
-1.883919	v a j
-0.876094	v a l
-1.291844	v a m
-0.9759221	v a n
-1.883919	v a p
-0.8959283	v a r
-0.9615242	v a s
-2.147161	v a t
-2.624282	v a y
-0.79588	w a </s>
-0.552842	w a s
-0.4436975	x a c
-0.9208187	x a g
-0.79588	x a l
-0.09198243	y a </s>
-1.603866	y a d
-1.235889	y a n
-1.536919	y a r
-1.382017	y a s
-0.5107096	z a </s>
-1.421486	z a b
-1.069304	z a c
-0.6925532	z a d
-2.391523	z a f
-2.567615	z a g
-2.266584	z a l
-1.589891	z a m
-1.27758	z a n
-2.266584	z a p
-0.7351055	z a r
-1.215432	z a s
-2.391523	z a ñ
-0.1597008	ç a </s>
-0.8129134	ç a o
-0.3521825	é a s
-0.1324657	í a </s>
-1.634589	í a m
-0.856438	í a n
-1.028526	í a s
-0.405322	ñ a </s>
-1.523421	ñ a b
-2.125481	ñ a c
-0.7830586	ñ a d
-0.8137274	ñ a l
-1.084089	ñ a n
-1.34733	ñ a r
-1.064783	ñ a s
-0.1760913	ú a </s>
-0.6232493	ú a n
-2.415391	<s> b </s>
-0.4297398	<s> b a
-2.415391	<s> b c
-1.039727	<s> b e
-0.9419038	<s> b i
-1.285057	<s> b l
-1.004614	<s> b o
-1.044323	<s> b r
-2.716421	<s> b s
-0.9170802	<s> b u
-1.871323	<s> b á
-2.716421	<s> b é
-2.318481	<s> b ó
-1.871323	<s> b ú
-0.4171062	a b a
-0.9981424	a b e
-1.099043	a b i
-0.8291708	a b l
-1.226214	a b o
-1.112616	a b r
-1.781622	a b s
-1.832775	a b u
-2.514016	a b é
-0.9928781	a b í
-2.066858	a b ó
-0.8180792	e b a
-2.170262	e b b
-0.6200334	e b e
-1.056318	e b i
-0.827839	e b l
-1.626194	e b o
-0.6583784	e b r
-1.693141	e b u
-1.626194	e b é
-1.357348	e b í
-2.201397	i b </s>
-0.9709482	i b a
-0.9883223	i b e
-0.6828832	i b i
-0.5579445	i b l
-1.775428	i b o
-0.7864238	i b r
-1.098735	i b u
-1.900367	i b í
-0.3565473	l b a
-0.6197888	l b e
-0.9825453	m b a
-2.103119	m b e
-0.4596666	m b i
-1.655961	m b l
-1.233888	m b o
-0.3788434	m b r
-1.802089	m b u
-2.324968	m b ó
-0.2218488	n b a
-0.8750613	n b u
-1.033168	o b a
-1.20926	o b e
-0.8325089	o b i
-1.417536	o b j
-0.7990851	o b l
-1.832509	o b o
-0.465153	o b r
-1.160411	o b s
-1.628389	o b t
-1.929419	o b u
-2.355388	o b v
-2.230449	o b ó
-0.4988405	r b a
-1.612784	r b e
-0.4988405	r b i
-0.7377226	r b o
-1.135663	r b u
-0.8293038	s b a
-1.130334	s b e
-0.4313638	s b o
-0.09177037	t b o
-1.021189	t b u
-1.668386	u b </s>
-1.589205	u b a
-1.765296	u b c
-2.066326	u b d
-1.221228	u b e
-0.4482778	u b i
-1.765296	u b j
-1.045137	u b l
-1.163236	u b o
-0.835877	u b r
-1.163236	u b s
-1.765296	u b u
-2.066326	u b v
-2.066326	u b í
-0.2218488	á b a
-0.9208187	á b i
-0.79588	á b r
-0.05115252	é b i
-0.50515	í b a
-0.90309	í b e
-0.90309	í b l
-0.01523997	ú b l
-3.326882	<s> c </s>
-0.7190695	<s> c a
-2.849761	<s> c c
-1.543932	<s> c e
-3.201943	<s> c f
-3.502973	<s> c g
-1.673669	<s> c h
-1.263674	<s> c i
-1.739545	<s> c l
-2.900913	<s> c n
-0.2858841	<s> c o
-1.359958	<s> c r
-3.502973	<s> c s
-2.76261	<s> c t
-1.010911	<s> c u
-2.298853	<s> c á
-2.573554	<s> c é
-2.804003	<s> c í
-2.079727	<s> c ó
-3.023664	a c </s>
-1.128794	a c a
-1.467361	a c c
-0.8305393	a c e
-1.634498	a c h
-0.3059934	a c i
-3.023664	a c k
-3.023664	a c l
-1.518514	a c o
-1.793215	a c r
-0.9963143	a c t
-1.41088	a c u
-2.625724	a c é
-1.780626	a c í
-2.120574	a c ó
-0.8750613	b c </s>
-0.8750613	b c e
-0.5740313	b c o
-0.69897	b c r
-1.589471	c c e
-0.03489518	c c i
-1.393176	c c o
-1.651188	e c a
-1.24723	e c c
-0.8647006	e c e
-1.04661	e c h
-0.6218985	e c i
-2.983626	e c k
-1.837498	e c l
-1.942234	e c n
-1.044107	e c o
-1.793295	e c r
-0.7188085	e c t
-1.07783	e c u
-2.381566	e c á
-1.465112	e c í
-2.419405	i c </s>
-0.4281789	i c a
-2.259704	i c c
-1.309189	i c e
-1.760864	i c h
-0.648553	i c i
-3.072618	i c k
-1.641254	i c l
-0.6412537	i c o
-2.072618	i c r
-1.868497	i c t
-1.617773	i c u
-2.259704	i c í
-1.817345	i c ó
-0.2152434	l c a
-1.462398	l c e
-1.337459	l c o
-0.7933912	l c u
-1.337459	l c ó
-0.39794	m c </s>
-1.055367	n c a
-0.8803188	n c e
-1.618599	n c h
-0.286692	n c i
-1.253899	n c l
-1.002483	n c o
-2.897352	n c q
-1.693232	n c r
-1.385469	n c u
-2.420231	n c é
-2.897352	n c í
-2.295292	n c ó
-0.7477031	o c a
-2.252853	o c c
-2.650793	o c d
-0.8345518	o c e
-1.125748	o c h
-0.6358527	o c i
-2.349763	o c l
-0.9224393	o c o
-1.446673	o c r
-1.53685	o c t
-0.9432229	o c u
-1.775732	o c í
-1.69655	o c ó
-0.01579427	p c i
-2.08398	r c </s>
-0.6166187	r c a
-0.7902493	r c e
-1.146128	r c h
-0.5611014	r c i
-1.18089	r c o
-0.8709053	r c u
-2.08398	r c ó
-0.6519518	s c a
-1.059437	s c e
-1.633469	s c h
-1.132866	s c i
-2.01368	s c l
-0.7083283	s c o
-0.8613914	s c r
-0.7170145	s c u
-1.758407	s c á
-1.867552	s c ó
-0.4357286	t c </s>
-1.176091	t c h
-0.6320232	t c n
-0.8750613	t c é
-1.753328	u c a
-1.047179	u c c
-0.9874108	u c e
-0.5995128	u c h
-0.6046222	u c i
-2.531479	u c k
-1.628389	u c l
-2.230449	u c o
-2.355388	u c r
-0.6832898	u c t
-2.054358	u c u
-1.791116	u c í
-0.2382392	x c e
-1.352183	x c i
-0.69897	x c l
-1.352183	x c u
-0.2730013	z c a
-1.352183	z c i
-0.6532125	z c l
-0.9542425	z c o
-1.69897	á c e
-0.49485	á c i
-0.2676062	á c t
-1.09691	á c u
-1.369216	é c a
-1.369216	é c d
-1.466126	é c i
-0.7671559	é c n
-1.591065	é c o
-0.6879746	é c t
-0.3779898	é c u
-1.579784	í c e
-1.755875	í c h
-0.5797836	í c i
-1.153815	í c l
-1.278754	í c o
-0.7781513	í c t
-0.4658403	í c u
-0.4393327	ó c r
-3.48411	<s> d </s>
-1.83738	<s> d a
-0.08576478	<s> d e
-1.068024	<s> d i
-1.390688	<s> d o
-2.757111	<s> d r
-1.725703	<s> d u
-3.48411	<s> d á
-2.639012	<s> d é
-1.961231	<s> d í
-2.705959	<s> d ó
-0.7592736	a d </s>
-0.6940231	a d a
-1.155822	a d e
-1.395399	a d i
-2.77561	a d j
-2.035248	a d m
-0.3581387	a d o
-2.512369	a d q
-1.467402	a d r
-2.155822	a d u
-2.122398	a d v
-2.77561	a d á
-2.951702	a d é
-2.553762	a d í
-2.951702	a d ó
-0.1760913	b d i
-0.7403627	c d e
-0.3424227	c d o
-1.47945	e d </s>
-0.5960633	e d a
-0.6444758	e d e
-0.534649	e d i
-1.073184	e d o
-1.79472	e d r
-1.19996	e d u
-1.929419	e d í
-2.271842	e d ó
-0.1760913	f d t
-0.1760913	g d a
-1.525437	i d </s>
-0.3559768	i d a
-0.8357789	i d e
-1.315598	i d i
-0.5228133	i d o
-2.56683	i d r
-1.77678	i d u
-2.86786	i d é
-2.16889	i d í
-2.86786	i d ó
-1.338457	l d </s>
-0.384214	l d a
-0.7152072	l d e
-1.435367	l d i
-0.8613352	l d o
-1.560305	l d r
-1.435367	l d á
-1.736397	l d í
-0.1760913	m d </s>
-2.687306	n d </s>
-0.9091547	n d a
-0.6927689	n d e
-0.7924363	n d i
-0.4195477	n d o
-1.687306	n d r
-1.090709	n d u
-2.988336	n d á
-2.590396	n d é
-2.034093	n d í
-2.590396	n d ó
-2.247973	n d ú
-2.571709	o d </s>
-0.7587955	o d a
-0.8235208	o d e
-1.101887	o d i
-0.4661987	o d o
-1.116864	o d r
-0.9184963	o d u
-1.381377	o d í
-1.410777	r d </s>
-0.6511094	r d a
-0.5541994	r d e
-0.7064122	r d i
-0.7760481	r d o
-2.137776	r d s
-2.137776	r d u
-2.313867	r d é
-1.614897	r d í
-1.660655	r d ó
-0.04541539	s d e
-1.672098	s d i
-1.848189	s d s
-0.9307614	u d </s>
-0.446087	u d a
-1.148817	u d e
-2.209515	u d h
-0.5811261	u d i
-0.908485	u d o
-2.033424	u d í
-2.033424	u d ó
-0.1760913	á d i
-0.09691001	é d i
-0.6139592	í d a
-0.437868	í d e
-1.170262	í d i
-0.5682017	í d o
-0.07463362	ó d i
-2.270141	<s> e </s>
-2.061865	<s> e c
-2.373361	<s> e d
-2.906963	<s> e e
-2.173231	<s> e f
-3.685114	<s> e g
-3.287174	<s> e i
-2.278574	<s> e j
-0.500849	<s> e l
-1.605933	<s> e m
-0.531452	<s> e n
-3.141047	<s> e p
-2.116913	<s> e q
-1.728466	<s> e r
-0.6106638	<s> e s
-2.23027	<s> e t
-2.39508	<s> e u
-2.173231	<s> e v
-1.37655	<s> e x
-3.685114	<s> e ñ
-0.9834008	a e </s>
-1.585461	a e c
-0.4240927	a e l
-1.284431	a e n
-0.5854607	a e r
-1.284431	a e s
-0.8395889	b e </s>
-1.416825	b e b
-1.827	b e c
-1.827	b e d
-1.973128	b e i
-1.048849	b e l
-1.827	b e m
-1.048849	b e n
-0.3710679	b e r
-1.441649	b e s
-1.769008	b e t
-1.194977	b e z
-2.371068	b e ñ
-0.7013761	c e </s>
-2.683647	c e a
-2.31567	c e b
-2.461799	c e c
-1.375439	c e d
-2.859739	c e f
-2.257679	c e i
-2.859739	c e j
-1.22627	c e l
-2.014641	c e m
-0.7841916	c e n
-2.31567	c e o
-1.211379	c e p
-0.7214358	c e r
-0.6556186	c e s
-1.799041	c e t
-0.2192418	d e </s>
-2.134634	d e a
-1.960708	d e b
-1.672907	d e c
-2.404406	d e d
-1.947871	d e f
-3.057619	d e g
-2.197281	d e j
-0.9212945	d e l
-1.796356	d e m
-1.352183	d e n
-2.618286	d e o
-2.175379	d e p
-1.411705	d e r
-1.034881	d e s
-2.134634	d e t
-2.784617	d e v
-2.618286	d e z
-0.6188735	e e </s>
-1.596597	e e g
-1.295567	e e l
-0.7215359	e e n
-0.7836837	e e r
-1.420506	e e s
-0.8184459	e e u
-1.276108	f e </s>
-2.089021	f e a
-2.089021	f e b
-0.6011764	f e c
-2.21396	f e d
-2.390052	f e i
-1.390051	f e l
-1.845984	f e m
-0.8585726	f e n
-1.845984	f e o
-0.5035608	f e r
-0.9750782	f e s
-2.089021	f e t
-1.261521	g e </s>
-1.845098	g e d
-1.778151	g e l
-1.669007	g e m
-0.1608513	g e n
-1.845098	g e o
-0.9604915	g e r
-1.447158	g e s
-2.146128	g e t
-0.6897991	h e </s>
-2.214844	h e b
-0.8346326	h e c
-2.214844	h e d
-2.214844	h e e
-2.038753	h e g
-1.436693	h e l
-0.9843949	h e m
-1.369746	h e n
-0.5568324	h e r
-1.369746	h e s
-1.285425	h e t
-1.4843	i e </s>
-2.30024	i e b
-2.739572	i e c
-1.433147	i e d
-2.165541	i e g
-2.040602	i e j
-1.634062	i e l
-1.093659	i e m
-0.3196166	i e n
-0.6060334	i e r
-1.402113	i e s
-1.943692	i e t
-2.165541	i e v
-1.926659	i e z
-0.6155905	j e </s>
-1.911158	j e a
-1.471825	j e c
-1.337126	j e f
-1.36709	j e m
-1.558975	j e n
-0.5175824	j e r
-1.06606	j e s
-0.8411198	j e t
-1.911158	j e z
-0.7781513	k e </s>
-1.176091	k e l
-0.5740313	k e n
-1.176091	k e r
-0.8750613	k e t
-0.6762105	l e </s>
-1.624379	l e a
-1.983401	l e b
-1.065071	l e c
-2.316615	l e d
-2.527469	l e e
-2.254467	l e f
-1.094099	l e g
-2.652407	l e h
-2.316615	l e i
-1.674684	l e j
-2.430559	l e l
-1.358677	l e m
-1.215715	l e n
-1.59805	l e o
-1.49104	l e r
-0.5955027	l e s
-1.682371	l e t
-3.129529	l e u
-1.266206	l e v
-2.20011	l e x
-1.912045	l e y
-1.79709	l e z
-2.731589	l e í
-2.527469	l e ñ
-2.731589	l e ó
-1.158486	m e </s>
-2.243658	m e a
-2.044086	m e c
-1.032805	m e d
-2.845718	m e g
-1.359051	m e j
-2.09239	m e l
-2.176711	m e m
-0.3228393	m e n
-0.7990928	m e r
-1.419749	m e s
-1.152578	m e t
-2.623869	m e x
-3.021809	m e y
-2.208896	m e z
-2.623869	m e ñ
-0.9094301	n e </s>
-1.749908	n e a
-2.227029	n e b
-1.203548	n e c
-2.005181	n e d
-2.035144	n e f
-1.403121	n e g
-2.880242	n e i
-2.70415	n e j
-2.102091	n e l
-1.601488	n e m
-1.168435	n e n
-2.067328	n e o
-0.7747316	n e r
-0.4060255	n e s
-1.801061	n e t
-2.139879	n e u
-2.336174	n e v
-2.102091	n e x
-2.005181	n e z
-0.6499835	o e </s>
-1.127105	o e a
-1.348954	o e d
-1.127105	o e m
-0.7468936	o e s
-0.8260748	o e t
-1.348954	o e x
-1.525045	o e z
-1.822067	p e </s>
-1.958287	p e a
-1.069723	p e c
-1.624257	p e d
-2.282798	p e g
-2.090913	p e i
-2.06095	p e j
-1.207657	p e l
-1.078678	p e n
-1.85683	p e o
-2.634981	p e p
-1.593588	p e q
-0.247591	p e r
-1.564943	p e s
-1.458889	p e t
-2.090913	p e z
-2.237041	p e ñ
-0.8011997	r e </s>
-1.405614	r e a
-2.036963	r e b
-0.8443566	r e c
-1.59125	r e d
-2.165282	r e e
-1.674796	r e f
-1.380397	r e g
-3.19331	r e h
-2.114129	r e i
-2.629039	r e j
-1.637008	r e l
-1.629039	r e m
-1.169372	r e n
-2.036963	r e o
-1.512069	r e p
-2.59125	r e q
-1.844357	r e r
-0.5394547	r e s
-1.512069	r e t
-2.126363	r e u
-1.584072	r e v
-2.369401	r e y
-2.272491	r e z
-2.629039	r e í
-3.19331	r e ñ
-2.971461	r e ú
-0.3180689	s e </s>
-1.691441	s e a
-1.548231	s e c
-2.418439	s e d
-2.418439	s e e
-3.196591	s e f
-1.087687	s e g
-2.383677	s e i
-2.497621	s e j
-2.155198	s e l
-1.390411	s e m
-1.032238	s e n
-2.543378	s e o
-2.196591	s e p
-2.895561	s e q
-0.9212793	s e r
-1.293501	s e s
-2.719469	s e t
-3.196591	s e u
-2.497621	s e v
-2.351493	s e x
-2.895561	s e z
-2.895561	s e í
-1.506395	s e ñ
-0.3652189	t e </s>
-1.964686	t e a
-3.110814	t e b
-1.768391	t e c
-2.245513	t e d
-3.286905	t e f
-2.156572	t e g
-2.742837	t e i
-2.985875	t e j
-1.51975	t e l
-1.2616	t e m
-0.8686041	t e n
-2.888965	t e o
-2.985875	t e q
-0.7906678	t e r
-0.9337588	t e s
-2.309182	t e t
-3.286905	t e u
-2.265716	t e x
-2.684845	t e z
-3.110814	t e ñ
-2.684845	t e ó
-0.2115252	u e </s>
-2.91496	u e a
-1.922259	u e b
-2.848013	u e c
-1.289991	u e d
-1.854262	u e g
-3.21599	u e h
-2.994141	u e j
-1.291711	u e l
-2.392081	u e m
-1.337085	u e n
-2.91496	u e o
-1.08673	u e r
-1.18932	u e s
-2.278138	u e t
-1.550096	u e v
-2.579168	u e z
-1.835779	u e ñ
-1.081614	v e </s>
-2.553883	v e a
-1.218091	v e c
-2.076762	v e d
-2.729974	v e g
-2.031004	v e h
-1.917061	v e i
-2.076762	v e j
-1.290642	v e l
-2.031004	v e m
-0.634805	v e n
-2.332034	v e o
-0.4982499	v e r
-1.026683	v e s
-2.252853	v e t
-1.133377	v e z
-1.989612	v e í
-0.544068	w e i
-1.134699	y e </s>
-0.5963076	y e c
-1.875061	y e m
-0.6709413	y e n
-0.552842	y e r
-1.09691	y e s
-1.574031	y e t
-0.60206	z e l
-0.3802112	z e r
-0.9542425	í e n
-0.1760913	í e s
-1.051152	ñ e </s>
-1.176091	ñ e c
-1.352183	ñ e e
-0.3309932	ñ e r
-1.051152	ñ e t
-0.60206	ü e d
-0.60206	ü e n
-0.8230962	<s> f a
-1.209027	<s> f e
-0.7590583	<s> f i
-1.773299	<s> f l
-0.8546569	<s> f o
-2.85248	<s> f p
-0.9413224	<s> f r
-2.308412	<s> f t
-0.565799	<s> f u
-1.676389	<s> f á
-2.85248	<s> f é
-1.75557	<s> f í
-2.375359	<s> f ó
-2.039567	<s> f ú
-1.092883	a f a
-0.8088859	a f e
-0.5255846	a f i
-1.252583	a f o
-1.030735	a f r
-1.604766	a f u
-1.905796	a f á
-1.060698	a f é
-1.060698	a f í
-0.60206	c f d
-0.60206	c f t
-1.818226	e f </s>
-1.475803	e f a
-0.4416489	e f e
-0.5128745	e f i
-1.261923	e f l
-0.9261313	e f o
-1.672098	e f r
-1.517196	e f u
-1.739045	e f ó
-0.4771213	f f </s>
-0.4771213	f f e
-1.992701	i f a
-0.5947608	i f e
-1.992701	i f f
-0.3025047	i f i
-1.624724	i f o
-1.239373	i f r
-1.566732	i f u
-1.071882	i f í
-0.1760913	k f u
-0.6368221	l f a
-0.9378521	l f i
-0.3357921	l f o
-2.117271	n f </s>
-1.24221	n f a
-0.7193313	n f e
-0.795052	n f i
-1.003328	n f l
-0.5374877	n f o
-1.096082	n f r
-1.187852	n f u
-1.816241	n f í
-1.486667	o f a
-0.5658478	o f e
-0.5488145	o f i
-1.486667	o f o
-0.8498445	o f r
-1.361728	o f t
-1.185637	o f u
-1.264818	o f í
-1.787697	o f ó
-1.230449	r f a
-0.2925968	r f e
-0.5614421	r f i
-1.10551	r f u
-1.556303	s f </s>
-0.8293038	s f a
-0.542062	s f e
-1.334454	s f i
-0.8029748	s f o
-1.033424	s f r
-0.8293038	s f u
-1.732394	s f é
-0.05799195	t f </s>
-1.562293	u f f
-0.4653828	u f i
-1.386202	u f l
-0.3719612	u f r
-1.060698	á f a
-0.2477845	á f i
-0.8846066	á f o
-0.7781513	é f i
-0.1760913	é f o
-1	í f e
-0.06550155	í f i
-0.544068	ó f i
-0.77487	<s> g a
-0.7051303	<s> g e
-1.550228	<s> g i
-1.734753	<s> g l
-2.664172	<s> g m
-0.7322056	<s> g o
-0.5742666	<s> g r
-0.931778	<s> g u
-0.8184459	a g a
-2.295567	a g d
-0.9733478	a g e
-1.693507	a g h
-0.9631286	a g i
-2.295567	a g m
-1.693507	a g n
-0.8562344	a g o
-0.7273654	a g r
-0.6881121	a g u
-1.897627	a g ó
-0.1760913	c g t
-0.5861252	e g a
-1.799833	e g e
-1.006441	e g i
-1.603538	e g l
-0.9006377	e g o
-1.153569	e g r
-0.5861252	e g u
-2.343901	e g á
-2.343901	e g í
-1.454599	e g ó
-1.05947	e g ú
-2.218798	i g </s>
-0.7274363	i g a
-1.014678	i g e
-1.97576	i g h
-0.9343672	i g i
-1.422918	i g l
-2.218798	i g m
-0.9757599	i g n
-0.9017799	i g o
-1.177405	i g r
-0.6937532	i g u
-2.218798	i g í
-2.519828	i g ó
-2.218798	i g ü
-0.8540838	l g a
-1.62177	l g i
-0.6343587	l g o
-1.466868	l g r
-0.3529243	l g u
-1.989746	l g ó
-1.035504	l g ú
-1.468347	n g </s>
-0.8055895	n g a
-0.9368684	n g e
-1.565257	n g i
-1.292256	n g l
-0.8555635	n g o
-0.8248947	n g r
-1.866287	n g s
-1.623249	n g t
-0.7279847	n g u
-1.389166	n g ú
-1.866287	n g ü
-0.9249918	o g a
-1.211299	o g e
-1.025662	o g i
-2.08636	o g m
-0.9560261	o g o
-0.3830684	o g r
-2.08636	o g u
-2.08636	o g á
-0.8822398	o g í
-0.1249387	p g </s>
-1.775246	r g </s>
-0.3738457	r g a
-0.9557023	r g e
-1.195463	r g i
-0.9301482	r g o
-1.360273	r g u
-0.9828545	r g á
-1.997095	r g é
-1.432824	r g í
-1.997095	r g ó
-1.872156	r g ú
-1.997095	r g ü
-0.7781513	s g a
-0.4771213	s g o
-0.4771213	s g r
-1.255273	s g u
-0.250539	u g a
-1.261263	u g e
-1.05041	u g i
-1.465383	u g n
-1.863323	u g o
-1.465383	u g r
-1.319255	u g t
-1.018225	u g u
-0.1760913	y g e
-0.6690068	z g a
-0.447158	z g o
-0.1710705	á g i
-0.7883704	á g r
-1.332438	á g u
-0.07918125	é g i
-0.3679768	í g e
-0.845098	í g i
-1.187521	ó g e
-0.06041592	ó g i
-1.585461	ó g r
-0.1760913	ú g u
-0.225546	<s> h a
-1.068659	<s> h e
-1.107289	<s> h i
-0.8322723	<s> h o
-1.092397	<s> h u
-2.865696	<s> h á
-2.342817	<s> h é
-3.041787	<s> h í
-3.041787	<s> h ú
-1.431364	a h </s>
-0.1618508	a h o
-1.285236	a h u
-0.7879111	a h í
-2.261263	c h </s>
-0.4466824	c h a
-0.9548379	c h e
-0.8720968	c h i
-0.5288691	c h o
-1.90908	c h r
-1.90908	c h u
-2.164353	c h w
-1.74938	c h á
-1.863323	c h í
-2.018225	c h ó
-0.39794	d h r
-0.9852768	e h a
-0.462398	e h e
-0.5081555	e h í
-0.3273589	g h e
-0.3853509	g h t
-0.4259687	i h i
-0.60206	n h a
-0.7269987	n h e
-0.90309	n h i
-0.449969	o h e
-0.4913617	o h i
-1.278754	s h </s>
-0.8016323	s h a
-0.7346855	s h e
-0.4036923	s h i
-0.30103	t h a
-0.30103	u h </s>
-0.1249387	x h i
-0.09691001	ú h o
-1.86224	<s> i b
-2.903632	<s> i c
-1.312568	<s> i d
-1.602602	<s> i g
-1.789689	<s> i l
-0.8583096	<s> i m
-0.1664399	<s> i n
-2.301573	<s> i o
-2.903632	<s> i p
-1.581413	<s> i r
-1.64836	<s> i s
-2.426511	<s> i t
-2.727541	<s> i u
-2.903632	<s> i v
-2.727541	<s> i z
-2.903632	<s> i ó
-1.414973	a i c
-1.539912	a i g
-1.062791	a i l
-1.171935	a i m
-1.318063	a i n
-0.4607309	a i r
-0.7160034	a i s
-1.716003	a i t
-2.621176	b i </s>
-1.298957	b i a
-2.320146	b i b
-1.718086	b i c
-1.174018	b i d
-0.5585943	b i e
-1.621176	b i g
-0.9136061	b i l
-2.621176	b i m
-1.666934	b i n
-0.9777236	b i o
-1.417056	b i r
-2.144055	b i s
-1.268994	b i t
-0.8503243	b i é
-1.417056	b i ó
-0.6422424	c i a
-2.031409	c i b
-1.825862	c i c
-1.222026	c i d
-1.092678	c i e
-2.288973	c i f
-3.310162	c i g
-3.134071	c i j
-1.569799	c i l
-1.75386	c i m
-1.546734	c i n
-0.7909906	c i o
-1.602592	c i p
-1.661802	c i r
-1.708102	c i s
-1.811852	c i t
-1.886916	c i u
-2.148794	c i v
-2.35592	c i é
-0.5954133	c i ó
-1.119401	d i a
-2.16981	d i b
-0.7758975	d i c
-1.007292	d i d
-1.082356	d i e
-1.223056	d i f
-1.640301	d i g
-1.484413	d i j
-1.922026	d i l
-1.727451	d i m
-1.692689	d i n
-1.10191	d i o
-2.107662	d i p
-2.982723	d i q
-1.140739	d i r
-0.909005	d i s
-1.806632	d i t
-2.982723	d i u
-1.386126	d i v
-2.204572	d i z
-2.584783	d i á
-2.982723	d i é
-1.408692	d i ó
-1.665894	e i </s>
-1.841985	e i b
-1.444045	e i d
-1.841985	e i e
-1.297917	e i g
-1.665894	e i m
-0.4528187	e i n
-1.540955	e i p
-1.841985	e i r
-0.9968868	e i s
-0.7450748	e i t
-1.364864	e i v
-1.841985	e i z
-1.769718	f i a
-2.184691	f i b
-0.3731164	f i c
-2.038563	f i d
-1.260412	f i e
-1.769718	f i g
-1.561442	f i j
-1.260412	f i l
-0.6877618	f i n
-2.40654	f i o
-2.281601	f i q
-0.9860343	f i r
-1.769718	f i s
-2.582631	f i t
-2.40654	f i x
-1.70757	f i y
-1.20412	g i a
-2.334454	g i b
-0.7009853	g i c
-1.0227	g i d
-1.52154	g i e
-2.033424	g i g
-1.273756	g i l
-1.489356	g i m
-0.8872957	g i n
-1.0227	g i o
-1.334454	g i r
-0.9822713	g i s
-1.52154	g i t
-1.173086	g i ó
-1.908485	h i </s>
-1.908485	h i a
-1.188326	h i b
-1.095572	h i c
-1.556303	h i d
-1.334454	h i e
-1.732394	h i g
-0.9790661	h i j
-1.280096	h i l
-2.033424	h i m
-0.8029748	h i n
-1.396602	h i p
-1.908485	h i q
-1.908485	h i r
-0.6976317	h i s
-1.665447	h i t
-1.209515	h i z
-1.371068	j i </s>
-1.371068	j i b
-1.070038	j i c
-1.194977	j i d
-0.9731278	j i l
-0.6307052	j i m
-1.371068	j i r
-1.070038	j i s
-1.194977	j i t
-1.156347	k i </s>
-1.156347	k i h
-0.3781959	k i l
-0.8553172	k i n
-1.332438	k i o
-1.156347	k i t
-1.153671	l i a
-1.145553	l i b
-0.7933707	l i c
-0.8024	l i d
-1.781037	l i e
-1.798766	l i f
-1.178977	l i g
-2.877947	l i k
-2.480007	l i l
-1.28135	l i m
-1.192205	l i n
-1.900223	l i o
-2.275887	l i p
-2.400826	l i q
-1.701856	l i r
-1.161944	l i s
-1.149593	l i t
-1.923704	l i v
-0.9775798	l i z
-2.877947	l i ñ
-2.480007	l i ó
-1.558541	m i </s>
-1.936737	m i a
-2.89098	m i b
-1.018823	m i c
-1.558541	m i d
-0.6748137	m i e
-1.399618	m i g
-1.05213	m i l
-2.58995	m i m
-0.7356436	m i n
-2.150617	m i o
-2.714888	m i q
-1.501814	m i r
-0.8099926	m i s
-1.068158	m i t
-2.49304	m i z
-2.58995	m i é
-2.413858	m i ó
-1.177088	n i </s>
-1.409038	n i a
-2.213518	n i b
-0.7327924	n i c
-0.8964996	n i d
-1.35318	n i e
-1.36842	n i f
-2.338456	n i g
-1.794388	n i l
-1.360733	n i m
-1.45385	n i n
-1.290533	n i o
-2.27151	n i p
-2.338456	n i q
-1.815578	n i r
-0.929087	n i s
-1.376245	n i t
-2.815578	n i u
-1.525543	n i v
-1.376245	n i z
-2.639487	n i á
-2.639487	n i é
-1.65421	n i ñ
-1.493358	n i ó
-1.185637	o i </s>
-0.8176598	o i c
-0.3405385	o i n
-0.9637879	o i t
-2.129529	p i </s>
-0.9912261	p i a
-2.129529	p i b
-1.351377	p i c
-1.09812	p i d
-0.6823707	p i e
-1.20011	p i l
-1.068831	p i n
-0.9681607	p i o
-2.254467	p i p
-1.20011	p i r
-1.254467	p i s
-0.9912261	p i t
-2.254467	p i z
-2.129529	p i é
-2.129529	p i ó
-1.780317	r i </s>
-0.8573325	r i a
-1.395606	r i b
-1.115206	r i c
-1.064314	r i d
-1.352993	r i e
-2.127105	r i f
-1.589986	r i g
-1.618949	r i l
-1.018765	r i m
-1.391151	r i n
-0.7224611	r i o
-2.236249	r i p
-2.268434	r i q
-1.729165	r i r
-1.255273	r i s
-1.285467	r i t
-2.151928	r i u
-1.710279	r i v
-1.710279	r i z
-2.604226	r i ñ
-1.738925	r i ó
-1.035826	s i </s>
-1.689039	s i a
-1.302578	s i b
-1.276249	s i c
-0.856252	s i d
-1.254886	s i e
-2.652826	s i f
-1.231222	s i g
-1.619403	s i l
-1.374073	s i m
-0.9108872	s i n
-1.322412	s i o
-2.874675	s i p
-2.652826	s i q
-2.237853	s i r
-1.108758	s i s
-1.17861	s i t
-1.512947	s i v
-1.009374	s i ó
-1.933053	t i </s>
-1.888849	t i a
-2.266268	t i b
-0.741722	t i c
-1.103749	t i d
-0.8930728	t i e
-1.726999	t i f
-1.411728	t i g
-1.334888	t i l
-1.212894	t i m
-1.234083	t i n
-1.965238	t i o
-1.594881	t i p
-3.079181	t i q
-1.201234	t i r
-1.690015	t i s
-1.371611	t i t
-0.8449171	t i v
-3.079181	t i w
-1.681241	t i z
-1.717453	t i ó
-2.012837	u i </s>
-1.954845	u i a
-2.556905	u i b
-1.380814	u i c
-0.8848074	u i d
-0.572378	u i e
-2.556905	u i j
-1.204723	u i l
-2.255875	u i m
-1.214483	u i n
-2.556905	u i o
-1.150365	u i p
-0.9494503	u i r
-1.289734	u i s
-1.459995	u i t
-1.711807	u i v
-1.278152	u i z
-1.778754	u i é
-2.380814	u i ñ
-1.903693	u i ó
-2.766041	v i </s>
-1.240996	v i a
-2.221973	v i b
-1.359501	v i c
-0.6537711	v i d
-0.9464969	v i e
-1.836622	v i g
-1.186257	v i l
-1.744852	v i m
-1.561921	v i n
-1.404313	v i o
-1.169444	v i r
-0.8093923	v i s
-1.334677	v i t
-2.163981	v i u
-1.137652	v i v
-2.368101	v i z
-2.766041	v i é
-1.724648	v i ó
-1	w i l
-0.8239087	w i n
-1	w i s
-0.60206	w i t
-1.524118	x i a
-1.767156	x i b
-1.223088	x i c
-1.369216	x i d
-0.8920946	x i g
-0.7257632	x i m
-2.068186	x i n
-1.414973	x i o
-0.4771213	x i s
-1.327823	x i t
-1.369216	x i ó
-0.3521825	y i </s>
-0.3521825	y i a
-0.9294189	z i </s>
-0.6283889	z i g
-0.9294189	z i n
-0.9294189	z i o
-0.9294189	z i s
-0.5228788	é i c
-0.5228788	é i s
-0.6766936	ñ i d
-0.8016323	ñ i s
-0.8016323	ñ i t
-0.7176987	<s> j a
-1.209797	<s> j e
-0.9700368	<s> j o
-0.2555546	<s> j u
-1.312459	<s> j ó
-0.4665711	a j a
-0.5506439	a j e
-1.660391	a j i
-0.5464478	a j o
-2.262451	a j u
-2.262451	a j á
-1.449538	a j ó
-0.01424044	b j e
-0.69897	d j n
-0.39794	d j u
-0.5249819	e j a
-0.7819442	e j e
-1.583577	e j i
-0.3916911	e j o
-2.060698	e j u
-1.838849	e j á
-1.458638	e j é
-1.634729	e j ó
-0.7323937	i j a
-1.227244	i j e
-1.829304	i j i
-0.1858511	i j o
-0.7160034	n j a
-0.5399121	n j e
-0.3357921	n j u
-0.9879911	o j </s>
-0.5822257	o j a
-1.075141	o j e
-1.552263	o j i
-0.4061345	o j o
-1.728354	o j u
-1.552263	o j ó
-0.6532125	r j e
-0.4771213	r j u
-0.1760913	s j </s>
-1.159701	u j a
-0.2814344	u j e
-1.072551	u j i
-0.5954294	u j o
-1.812913	u j ó
-0.09691001	á j a
-0.1249387	ó j i
-1.498311	<s> k </s>
-0.4983106	<s> k a
-1.498311	<s> k e
-0.4983106	<s> k i
-1.197281	<s> k u
-0.5351132	a k </s>
-0.4771213	a k a
-1.079181	a k e
-0.90309	a k i
-0.7269987	c k </s>
-0.7269987	c k e
-0.6532125	i k a
-0.69897	n k a
-0.69897	n k f
-0.7781513	o k </s>
-0.4771213	o k i
-0.60206	o k o
-0.7781513	r k a
-0.30103	r k e
-0.90309	s k </s>
-0.4259687	s k i
-0.2632414	u k e
-0.1760913	v k o
-0.1760913	y k </s>
-3.420341	<s> l </s>
-0.2407891	<s> l a
-1.248127	<s> l e
-1.526394	<s> l i
-1.410324	<s> l l
-0.5654278	<s> l o
-1.776888	<s> l u
-2.897462	<s> l á
-3.596432	<s> l é
-2.198492	<s> l í
-2.897462	<s> l ó
-3.596432	<s> l ú
-0.4625572	a l </s>
-1.337796	a l a
-2.508591	a l b
-1.723909	a l c
-1.906531	a l d
-0.8049088	a l e
-2.373892	a l f
-1.171586	a l g
-3.248954	a l h
-0.9690586	a l i
-1.287533	a l l
-1.359652	a l m
-1.42941	a l o
-2.947924	a l p
-1.9702	a l q
-2.947924	a l r
-2.704885	a l s
-1.373892	a l t
-1.868742	a l u
-2.102826	a l v
-2.851014	a l y
-2.319535	a l z
-2.595741	a l á
-2.508591	a l í
-2.188256	a l ó
-0.6712328	b l a
-0.2287869	b l e
-0.9277568	b l i
-1.201464	b l o
-2.115278	b l ó
-0.4612827	c l a
-1.201645	c l e
-0.7659168	c l i
-1.038918	c l o
-0.5850267	c l u
-1.502675	c l á
-2.243038	c l é
-0.1233329	e l </s>
-1.482146	e l a
-3.232911	e l b
-2.596089	e l d
-1.174739	e l e
-3.409003	e l f
-2.431279	e l g
-1.710033	e l i
-1.290077	e l l
-1.415566	e l o
-3.409003	e l s
-2.028791	e l t
-2.806943	e l u
-2.66864	e l v
-3.232911	e l á
-2.130249	e l é
-2.295059	e l í
-0.7403627	f l a
-0.4885507	f l e
-0.7725474	f l i
-0.9322482	f l o
-0.845098	f l u
-0.5542872	g l a
-1.156347	g l e
-0.3781959	g l o
-0.980256	g l é
-1.633469	g l ó
-0.9128918	i l </s>
-0.9361631	i l a
-2.37153	i l b
-2.195438	i l d
-0.8836845	i l e
-2.496468	i l f
-0.5773903	i l i
-0.6391359	i l l
-1.859646	i l m
-1.526432	i l o
-2.67256	i l s
-2.37153	i l t
-1.65137	i l u
-2.195438	i l í
-1.743141	i l ó
-0.4602767	l l a
-0.5049864	l l e
-1.770852	l l i
-0.6495476	l l o
-1.795676	l l u
-2.725095	l l v
-2.549003	l l y
-1.946943	l l á
-2.725095	l l é
-1.457923	l l í
-1.770852	l l ó
-0.5563025	m l a
-0.4771213	m l e
-0.9542425	m l i
-0.3521825	n l a
-1.166684	o l </s>
-0.9006314	o l a
-2.488903	o l c
-1.599601	o l d
-0.9940531	o l e
-2.391993	o l g
-0.951084	o l i
-1.298571	o l l
-2.789933	o l m
-0.9177768	o l o
-1.729235	o l p
-2.136721	o l s
-1.97702	o l t
-1.141573	o l u
-1.166684	o l v
-2.789933	o l z
-1.37496	o l é
-1.004603	o l í
-1.320111	o l ó
-0.5501528	p l a
-2.282547	p l d
-0.4674118	p l e
-0.6325631	p l i
-1.2156	p l o
-1.583577	p l u
-1.759668	p l á
-2.060698	p l é
-2.157608	p l í
-0.6283889	r l a
-2.075547	r l d
-0.4900862	r l e
-1.774517	r l i
-0.4680919	r l o
-2.075547	r l s
-1.677607	r l í
-0.1632032	s l a
-1.618048	s l e
-0.9190781	s l o
-1.140927	s l u
-0.5314789	t l e
-0.9294189	t l á
-0.5314789	t l é
-1.593532	u l </s>
-0.4667877	u l a
-2.371683	u l c
-1.848805	u l e
-1.618356	u l g
-1.506382	u l i
-1.848805	u l l
-1.769623	u l m
-2.547775	u l n
-0.9245254	u l o
-1.807412	u l p
-1.417441	u l s
-0.5370508	u l t
-2.547775	u l u
-2.371683	u l v
-2.547775	u l z
-2.149835	u l é
-2.547775	u l í
-2.003707	u l ó
-0.4771213	y l l
-0.4771213	y l o
-0.39794	z l u
-0.6532125	á l </s>
-1.130334	á l c
-1.209515	á l e
-1.607455	á l g
-0.4313638	á l i
-0.908485	á l o
-0.1249387	é l </s>
-1.431364	é l a
-1.255273	é l i
-0.9920311	é l u
-1.164353	ó l a
-0.9882616	ó l i
-0.1112744	ó l o
-1.863323	ó l v
-1.457377	ú l g
-0.03687136	ú l t
-0.07918125	ü l l
-0.6834754	<s> m a
-2.841234	<s> m b
-0.7045137	<s> m e
-0.8030117	<s> m i
-2.938144	<s> m l
-2.841234	<s> m n
-0.9037164	<s> m o
-3.063083	<s> m p
-0.8192186	<s> m u
-3.239174	<s> m y
-0.8977398	<s> m á
-2.077806	<s> m é
-2.10884	<s> m í
-2.841234	<s> m ó
-2.336084	<s> m ú
-2.451172	a m </s>
-0.8623405	a m a
-0.7681251	a m b
-0.5568561	a m e
-0.7979596	a m i
-2.247052	a m m
-2.247052	a m n
-0.9196932	a m o
-1.112716	a m p
-2.451172	a m u
-1.919693	a m á
-2.150142	a m é
-2.548082	a m í
-2.1959	a m ó
-0.03778856	d m i
-2.343409	e m </s>
-0.752344	e m a
-1.295485	e m b
-0.9174399	e m e
-1.148432	e m i
-2.007617	e m n
-0.856742	e m o
-0.4430415	e m p
-2.343409	e m u
-1.33623	e m á
-2.5195	e m ó
-0.6690068	g m a
-0.6690068	g m e
-0.845098	g m t
-0.845098	g m á
-2.551043	i m </s>
-0.6997848	i m a
-2.183066	i m b
-0.6997848	i m e
-0.7121941	i m i
-2.183066	i m l
-2.727134	i m n
-0.8520731	i m o
-0.6683289	i m p
-2.125074	i m u
-1.986772	i m é
-2.551043	i m ó
-0.9363309	l m a
-0.1326256	l m e
-1.324511	l m i
-1.500602	l m o
-1.676694	l m u
-0.90309	m m </s>
-0.4259687	m m a
-0.4710471	n m </s>
-1.675167	n m a
-1.851258	n m d
-0.6471384	n m e
-1.00616	n m i
-1.00616	n m o
-0.8735347	n m u
-1.851258	n m ó
-2.901458	o m </s>
-1.224765	o m a
-0.8332725	o m b
-2.901458	o m c
-0.9619391	o m e
-1.075384	o m i
-0.5070066	o m o
-0.7224814	o m p
-2.503518	o m s
-1.462126	o m u
-1.923735	o m á
-2.299398	o m é
-1.998368	o m í
-1.923735	o m ó
-2.05636	o m ú
-0.2601405	r m a
-0.7979596	r m e
-0.7297738	r m i
-1.542687	r m o
-1.756567	r m u
-2.019808	r m á
-2.320838	r m í
-1.49693	r m ó
-0.721634	s m a
-2.168792	s m e
-1.054849	s m i
-0.1797874	s m o
-2.168792	s m é
-1.867762	s m í
-0.30103	t m o
-0.9542425	t m t
-0.9542425	t m u
-1.975432	u m </s>
-0.6281018	u m a
-0.8371291	u m b
-0.6429933	u m e
-1.033424	u m i
-1.975432	u m n
-1.130334	u m o
-0.9977082	u m p
-2.276462	u m t
-1.498311	u m u
-2.100371	u m í
-2.276462	u m ó
-0.1760913	y m e
-0.3679768	z m a
-0.544068	z m e
-0.5862657	á m a
-0.8293038	á m b
-0.9542425	á m e
-0.6532125	á m i
-1.130334	á m p
-0.6690068	é m b
-0.447158	é m i
-0.6690068	é m o
-1.151268	í m b
-0.3853509	í m e
-0.4670209	í m i
-1.628389	í m p
-1.327359	í m u
-1.623249	ó m a
-0.7781513	ó m e
-0.4014005	ó m i
-0.4983106	ó m o
-1.623249	ó m p
-0.05648136	ú m e
-2.481647	<s> n </s>
-0.8969931	<s> n a
-2.372503	<s> n b
-2.849624	<s> n c
-1.11723	<s> n e
-1.043444	<s> n i
-3.025715	<s> n m
-0.263412	<s> n o
-0.8953816	<s> n u
-2.627775	<s> n á
-1.835384	<s> n ú
-0.5685502	a n </s>
-1.150371	a n a
-1.19266	a n c
-0.8368375	a n d
-1.763006	a n e
-2.915294	a n f
-2.0232	a n g
-3.313234	a n h
-1.289982	a n i
-2.313234	a n j
-3.137143	a n k
-3.137143	a n m
-2.836113	a n n
-1.219813	a n o
-2.292045	a n q
-1.641136	a n s
-0.6443827	a n t
-2.034481	a n u
-1.636541	a n z
-2.660022	a n á
-2.915294	a n é
-2.410144	a n í
-2.769166	a n ó
-0.9472936	c n e
-0.4913617	c n i
-0.449969	c n o
-0.9472936	c n q
-0.4652496	e n </s>
-1.532824	e n a
-3.430451	e n b
-1.079558	e n c
-1.26215	e n d
-1.255326	e n e
-2.217376	e n f
-2.191569	e n g
-3.430451	e n h
-1.817667	e n i
-3.430451	e n j
-3.430451	e n l
-3.430451	e n m
-1.56318	e n o
-3.062474	e n r
-1.481061	e n s
-0.5010324	e n t
-2.376094	e n u
-2.416211	e n v
-2.208603	e n z
-2.761445	e n é
-2.129421	e n í
-2.86618	e n ó
-0.6213651	g n a
-1.486667	g n e
-0.3840042	g n i
-0.7876965	g n o
-1.264818	g n ó
-1.19226	i n </s>
-0.8033994	i n a
-0.9428505	i n c
-1.098355	i n d
-1.368351	i n e
-1.432809	i n f
-1.308957	i n g
-2.733839	i n h
-1.131779	i n i
-2.955688	i n j
-3.131779	i n k
-1.619896	i n m
-2.20236	i n n
-1.096349	i n o
-2.733839	i n q
-1.368351	i n s
-0.8777146	i n t
-1.716806	i n u
-1.332438	i n v
-2.955688	i n á
-2.587711	i n é
-2.20236	i n ó
-2.353628	i n ú
-0.1760913	j n m
-0.3679768	l n </s>
-0.544068	l n e
-1	m n a
-0.90309	m n e
-0.3467875	m n i
-1.30103	m n o
-1	m n r
-0.819544	n n a
-0.916454	n n e
-0.916454	n n i
-0.5185139	n n o
-0.531359	o n </s>
-0.9685729	o n a
-1.356856	o n c
-1.082795	o n d
-0.8497214	o n e
-1.745795	o n f
-1.921886	o n g
-1.616701	o n i
-2.276162	o n j
-3.33686	o n l
-2.523947	o n m
-3.33686	o n n
-1.444765	o n o
-2.93892	o n q
-2.382617	o n r
-1.128687	o n s
-1.029364	o n t
-2.93892	o n u
-1.596497	o n v
-3.33686	o n x
-2.7348	o n y
-2.93892	o n z
-2.93892	o n á
-2.558709	o n é
-2.257679	o n í
-1.897527	o n ó
-0.30103	p n v
-0.4374486	r n a
-1.361728	r n e
-1.122846	r n i
-0.3256315	r n o
-2.236789	r n á
-0.4771213	s n i
-0.8750613	s n o
-0.69897	s n u
-0.8129134	t n c
-0.6368221	t n i
-0.4471863	u n </s>
-0.5002251	u n a
-1.415115	u n c
-1.14854	u n d
-2.185967	u n e
-2.256548	u n f
-3.009876	u n g
-1.254001	u n i
-1.164778	u n o
-1.606183	u n q
-2.486997	u n s
-1.340869	u n t
-3.185967	u n á
-3.185967	u n í
-0.39794	w n s
-0.8750613	z n a
-1.477121	z n f
-0.1249387	z n m
-0.3529021	á n </s>
-2.002886	á n c
-0.6539322	á n d
-1.400826	á n e
-2.178977	á n g
-0.7318189	á n i
-2.002886	á n s
-1.366064	á n t
-0.1249387	é n </s>
-1.087614	é n d
-2.017033	é n f
-1.840942	é n i
-1.716003	é n o
-1.113943	é n t
-0.5314789	í n </s>
-1.452298	í n a
-1.026329	í n d
-0.9751764	í n e
-0.8502377	í n i
-1.327359	í n s
-0.7533277	í n t
-0.02039593	ó n </s>
-2.274158	ó n d
-2.876218	ó n e
-1.524035	ó n i
-2.478278	ó n o
-0.1268067	ú n </s>
-1.589205	ú n e
-0.6861147	ú n i
-0.6457833	<s> o </s>
-2.851258	<s> o a
-0.9675969	<s> o b
-1.17916	<s> o c
-2.453318	<s> o d
-2.073107	<s> o e
-1.228009	<s> o f
-2.675167	<s> o i
-1.68989	<s> o j
-2.851258	<s> o k
-1.572505	<s> o l
-2.30719	<s> o m
-1.754348	<s> o n
-1.143688	<s> o p
-0.9117391	<s> o r
-1.772077	<s> o s
-0.6944064	<s> o t
-2.550228	<s> o v
-2.073107	<s> o x
-2.453318	<s> o y
-2.152288	<s> o í
-0.5642715	a o </s>
-0.4973246	a o r
-0.7403627	a o s
-1.147419	b o </s>
-1.82866	b o a
-1.185207	b o c
-1.92557	b o d
-1.448449	b o g
-0.7567779	b o l
-1.112657	b o m
-1.381502	b o n
-0.5545021	b o r
-1.009116	b o s
-1.165902	b o t
-0.9584852	c o </s>
-2.655715	c o a
-2.193316	c o b
-2.208556	c o c
-2.701472	c o d
-3.178593	c o e
-2.137201	c o g
-2.576533	c o h
-2.376961	c o i
-3.178593	c o j
-1.485453	c o l
-0.6561491	c o m
-0.3412153	c o n
-2.224351	c o o
-2.313292	c o p
-3.053655	c o q
-1.329379	c o r
-1.106711	c o s
-2.509587	c o t
-3.053655	c o u
-2.956744	c o v
-2.956744	c o y
-3.354685	c o ñ
-0.2116296	d o </s>
-2.355012	d o b
-1.994396	d o c
-3.284431	d o g
-2.029158	d o l
-1.972677	d o m
-1.509914	d o n
-2.017259	d o p
-1.050167	d o r
-0.689486	d o s
-2.544068	d o t
-2.439333	d o u
-3.284431	d o w
-3.10834	d o x
-3.284431	d o z
-2.682371	d o ñ
-0.23083	e o </s>
-1.079181	e o c
-2.056905	e o e
-1.880814	e o g
-2.056905	e o j
-1.512837	e o l
-1.658965	e o n
-1.056905	e o r
-1.079181	e o s
-1.880814	e o t
-1.880814	e o z
-1.360616	f o </s>
-1.812913	f o c
-2.290035	f o f
-1.989005	f o l
-1.812913	f o m
-0.8834944	f o n
-2.113943	f o q
-0.1629298	f o r
-1.745967	f o s
-1.687975	f o t
-1.745967	f o x
-0.3907274	g o </s>
-0.7638438	g o b
-1.417056	g o c
-1.217484	g o l
-1.399328	g o n
-1.253199	g o r
-0.8941776	g o s
-1.33487	g o t
-2.320146	g o v
-1.894178	g o z
-0.6237792	h o </s>
-1.971806	h o c
-2.038753	h o g
-1.816904	h o j
-1.670776	h o l
-0.748718	h o m
-1.248702	h o n
-2.117934	h o q
-0.6930522	h o r
-1.076541	h o s
-2.339782	h o t
-0.8301321	h o y
-0.490799	i o </s>
-2.947924	i o b
-2.646894	i o c
-1.993681	i o d
-2.771832	i o f
-2.470802	i o g
-1.625704	i o l
-2.646894	i o m
-0.4367089	i o n
-2.947924	i o p
-2.947924	i o q
-1.244632	i o r
-0.7187539	i o s
-2.13501	i o t
-0.28784	j o </s>
-2.356026	j o c
-1.753966	j o l
-1.702813	j o n
-0.7225574	j o r
-0.7379777	j o s
-1.480965	j o v
-0.4393327	k o m
-0.5642715	k o v
-0.5381801	l o </s>
-2.92557	l o a
-2.682532	l o b
-1.635535	l o c
-3.050509	l o d
-1.478412	l o g
-2.248876	l o j
-2.009116	l o m
-1.676372	l o n
-3.2266	l o o
-3.2266	l o p
-2.82866	l o q
-1.466932	l o r
-0.2532411	l o s
-2.036268	l o t
-3.050509	l o v
-3.050509	l o z
-0.3666687	m o </s>
-1.624233	m o c
-1.298092	m o d
-2.946452	m o f
-1.360991	m o l
-1.584724	m o m
-1.218099	m o n
-2.946452	m o p
-1.126908	m o r
-0.6421772	m o s
-1.624233	m o t
-2.946452	m o u
-1.69118	m o v
-2.946452	m o z
-0.2293368	n o </s>
-2.913284	n o a
-2.276462	n o b
-1.311224	n o c
-2.545307	n o d
-3.089375	n o f
-1.913284	n o l
-1.487315	n o m
-2.913284	n o n
-2.691435	n o p
-1.3335	n o r
-0.6769146	n o s
-1.810622	n o t
-1.756937	n o v
-3.089375	n o w
-2.691435	n o z
-0.6334684	o o </s>
-1.156347	o o d
-0.5542872	o o p
-0.6334684	o o r
-1.008565	p o </s>
-1.777798	p o b
-1.390582	p o c
-1.214491	p o d
-2.276639	p o e
-2.545484	p o f
-3.089552	p o j
-1.070436	p o l
-3.089552	p o m
-1.040334	p o n
-2.244454	p o p
-0.3417518	p o r
-0.9528313	p o s
-2.028854	p o t
-2.048159	p o y
-0.4765559	r o </s>
-2.709129	r o a
-1.470246	r o b
-1.363428	r o c
-1.434201	r o d
-2.28316	r o e
-1.853811	r o f
-1.78831	r o g
-2.445887	r o h
-2.48728	r o i
-2.010159	r o j
-1.568202	r o l
-1.523492	r o m
-0.8808985	r o n
-2.88522	r o o
-1.146836	r o p
-2.642182	r o q
-2.08934	r o r
-0.8235789	r o s
-1.629947	r o t
-2.48728	r o u
-1.6811	r o v
-2.642182	r o x
-1.955801	r o y
-2.28316	r o z
-3.18625	r o í
-0.5247954	s o </s>
-1.00025	s o b
-1.326985	s o c
-2.541829	s o d
-2.462647	s o e
-1.809435	s o f
-2.763678	s o k
-0.8964065	s o l
-1.649734	s o m
-0.7508403	s o n
-2.126855	s o p
-1.30128	s o r
-0.9712858	s o s
-1.70932	s o t
-2.240799	s o y
-2.541829	s o ñ
-0.4114425	t o </s>
-3.152594	t o a
-2.307496	t o b
-2.091896	t o c
-0.9457682	t o d
-2.675473	t o g
-2.851564	t o i
-3.152594	t o k
-2.152594	t o l
-1.550534	t o m
-1.246798	t o n
-2.453624	t o p
-2.412231	t o q
-0.8013777	t o r
-0.7164314	t o s
-1.810171	t o t
-2.976503	t o w
-3.152594	t o x
-2.675473	t o y
-3.152594	t o í
-2.675473	t o ñ
-0.2507249	u o </s>
-1.454845	u o c
-0.5517549	u o s
-1.278754	u o t
-0.4257051	v o </s>
-1.015296	v o c
-0.6903543	v o l
-2.438542	v o q
-1.324599	v o r
-0.7805309	v o s
-1.359361	v o t
-2.262451	v o y
-1.377844	v o z
-0.3679768	w o o
-0.544068	w o r
-0.30103	x o </s>
-0.3653286	y o </s>
-2.037426	y o l
-0.3890665	y o r
-0.9767287	y o s
-0.3733718	z o </s>
-1.577492	z o l
-0.6744018	z o n
-1.975432	z o p
-1.975432	z o r
-0.5952206	z o s
-1.799341	z o t
-0.1760913	é o l
-0.1010266	í o </s>
-1.025306	í o d
-1.247155	í o s
-0.4810694	ñ o </s>
-0.9050596	ñ o l
-1.00197	ñ o r
-0.3689605	ñ o s
-0.6275285	<s> p a
-0.8056704	<s> p e
-1.623456	<s> p i
-1.659668	<s> p l
-3.322426	<s> p n
-0.6011652	<s> p o
-2.845305	<s> p p
-0.6555962	<s> p r
-2.653419	<s> p s
-1.150212	<s> p u
-3.498517	<s> p y
-2.337149	<s> p á
-2.720366	<s> p é
-2.954449	<s> p í
-3.197487	<s> p ó
-2.368184	<s> p ú
-0.4676797	a p a
-0.8920946	a p e
-1.124409	a p i
-1.157409	a p l
-0.9046837	a p o
-0.856379	a p r
-2.260071	a p s
-1.561101	a p t
-1.78295	a p u
-2.436163	a p á
-2.436163	a p é
-2.436163	a p í
-1.458439	a p ó
-2.232996	e p </s>
-0.7858381	e p a
-1.492633	e p c
-0.9777236	e p e
-1.329906	e p i
-1.931966	e p l
-1.071628	e p o
-0.6707032	e p r
-0.6766936	e p t
-1.357935	e p u
-1.931966	e p ó
-1.755875	e p ú
-0.1760913	f p </s>
-2.178977	i p </s>
-0.7091549	i p a
-2.002886	i p c
-1.366064	i p e
-0.8365543	i p i
-1.157788	i p l
-0.4547011	i p o
-2.178977	i p p
-2.002886	i p r
-2.002886	i p s
-1.224734	i p u
-1.877947	i p z
-1.781037	i p ó
-0.6127838	l p a
-0.3340303	l p e
-0.6585413	l p i
-0.897221	m p a
-0.9985253	m p e
-2.593286	m p g
-1.457623	m p i
-0.6537668	m p l
-0.593286	m p o
-0.7279847	m p r
-1.250863	m p u
-2.769377	m p á
-2.468347	m p í
-0.8338414	o p a
-1.756826	o p c
-0.8605757	o p e
-0.5493265	o p i
-1.881765	o p l
-0.664281	o p o
-2.358886	o p p
-2.358886	o p r
-1.429467	o p t
-1.091715	o p u
-1.659916	o p ó
-0.2138798	p p </s>
-1.338457	r p a
-0.8069776	r p e
-1.435367	r p i
-1.338457	r p l
-0.4246427	r p o
-0.782154	r p r
-1.338457	r p u
-1.736397	r p ó
-0.649903	s p a
-0.4158198	s p e
-1.184631	s p i
-1.441756	s p l
-0.8438917	s p o
-1.742786	s p r
-0.9993964	s p u
-1.902486	s p í
-1.526662	u p </s>
-0.8276923	u p a
-1.730782	u p c
-0.6304117	u p e
-1.526662	u p i
-1.38836	u p l
-0.4755098	u p o
-1.526662	u p r
-1.651601	u p t
-1.283624	u p u
-1.730782	u p ó
-1.869232	x p a
-0.5367932	x p e
-0.4712917	x p l
-0.8915081	x p o
-0.8692317	x p r
-1.267172	x p u
-0.07918125	y p s
-0.30103	z p i
-0.04139268	á p i
-0.6434527	é p i
-0.4393327	é p o
-0.7403627	é p t
-0.447158	í p i
-0.447158	í p r
-0.4259687	ó p i
-0.4259687	ó p t
-0.69897	ú p i
-0.69897	ú p l
-0.5228788	ú p u
-0.0001423216	<s> q u
-0.003026455	a q u
-0.1760913	c q </s>
-0.03778856	d q u
-0.003113235	e q u
-0.008954843	i q u
-0.01128101	l q u
-1.168792	n q </s>
-0.03845825	n q u
-0.01072387	o q u
-0.003253157	r q u
-0.01128101	s q u
-0.04575749	u q u
-0.06694679	z q u
-0.04575749	á q u
-0.07918125	í q u
-0.9952732	<s> r a
-2.982045	<s> r d
-0.1498555	<s> r e
-1.296303	<s> r i
-1.104098	<s> r o
-1.457	<s> r u
-2.169132	<s> r á
-2.106984	<s> r é
-2.379985	<s> r í
-0.5785057	a r </s>
-0.7240719	a r a
-2.466404	a r b
-1.580619	a r c
-1.683752	a r d
-1.223366	a r e
-1.649335	a r g
-0.9892829	a r i
-3.369494	a r j
-3.193403	a r k
-1.521305	a r l
-1.746245	a r m
-2.165374	a r n
-1.257224	a r o
-3.068464	a r p
-2.629132	a r q
-1.295776	a r r
-1.56672	a r s
-1.203657	a r t
-3.193403	a r u
-3.369494	a r z
-1.530645	a r á
-2.716282	a r ç
-2.767434	a r é
-1.825426	a r í
-2.716282	a r ó
-0.6034925	b r a
-0.3250411	b r e
-0.955197	b r i
-1.035239	b r o
-1.637299	b r u
-1.959518	b r á
-1.579307	b r í
-2.482397	b r ó
-2.017033	c r </s>
-1.414973	c r a
-0.39794	c r e
-0.5256717	c r i
-1	c r o
-2.414973	c r s
-1.253605	c r u
-1.569875	c r á
-1.761761	c r é
-1.636822	c r í
-2.238882	c r ú
-1.033424	d r a
-0.7781513	d r e
-0.4819738	d r i
-1.109144	d r o
-1.829304	d r u
-1	d r á
-0.7879111	d r í
-1.732394	d r ó
-0.8162962	e r </s>
-0.7705387	e r a
-2.702274	e r b
-1.600652	e r c
-1.573405	e r d
-1.223839	e r e
-2.130883	e r f
-2.110198	e r g
-1.160468	e r i
-3.266545	e r j
-2.027663	e r l
-1.495693	e r m
-1.368918	e r n
-0.833576	e r o
-2.044697	e r p
-1.40521	e r r
-1.2873	e r s
-1.182565	e r t
-2.464913	e r u
-1.629723	e r v
-2.044697	e r z
-1.917592	e r á
-2.629723	e r é
-1.657307	e r í
-2.488394	e r ó
-2.629723	e r ú
-0.4713498	f r a
-0.5118834	f r e
-0.9074695	f r i
-1.174641	f r o
-1.361728	f r u
-1.572581	f r á
-1.196918	f r í
-0.3175287	g r a
-0.7449622	g r e
-1.091315	g r i
-0.9707412	g r o
-0.9841052	g r u
-1.748892	g r á
-2.012134	g r í
-2.188225	g r ó
-0.2498775	h r i
-0.90309	h r o
-0.90309	h r y
-0.5020239	i r </s>
-1.004053	i r a
-1.624596	i r c
-1.017841	i r e
-2.287354	i r g
-1.296128	i r i
-2.208173	i r k
-1.539166	i r l
-1.099833	i r m
-2.685294	i r n
-1.70757	i r o
-1.418122	i r r
-1.323566	i r s
-1.643901	i r t
-1.454845	i r u
-1.87238	i r v
-1.27032	i r á
-1.57135	i r í
-1.87238	i r ó
-0.09691001	l r e
-0.9542425	n r </s>
-0.60206	n r a
-1.079181	n r e
-0.4771213	n r i
-0.4323364	o r </s>
-0.9066161	o r a
-2.365254	o r b
-2.001172	o r c
-1.504916	o r d
-1.0535	o r e
-2.967314	o r f
-1.600891	o r g
-1.152733	o r i
-3.268344	o r l
-1.152733	o r m
-1.967314	o r n
-1.935905	o r o
-2.001172	o r p
-1.486589	o r q
-1.479469	o r r
-2.365254	o r s
-1.116056	o r t
-2.247155	o r z
-1.870404	o r í
-3.092253	o r ó
-1.759904	p r a
-2.662994	p r d
-0.3685276	p r e
-0.8723568	p r i
-0.433184	p r o
-2.034605	p r u
-1.817896	p r á
-2.787933	p r é
-1.759904	p r ó
-0.6058752	r r a
-0.573873	r r e
-0.696445	r r i
-0.6779616	r r o
-1.474596	r r u
-2.137354	r r á
-1.933234	r r í
-2.137354	r r ó
-0.06366908	s r a
-0.3466641	t r a
-0.8152336	t r e
-1.137332	t r i
-0.6136919	t r o
-1.430809	t r u
-1.90793	t r á
-2.768268	t r é
-2.416085	t r í
-1.662758	t r ó
-1.907997	u r </s>
-0.3282137	u r a
-1.670636	u r b
-2.104292	u r c
-1.803262	u r d
-1.718941	u r e
-2.64836	u r f
-1.430876	u r g
-1.225114	u r i
-2.171239	u r l
-2.34733	u r m
-1.64836	u r n
-0.9079973	u r o
-2.64836	u r p
-1.171239	u r r
-1.34733	u r s
-2.0463	u r t
-1.870209	u r u
-2.472269	u r á
-2.0463	u r í
-1.803262	u r ó
-1.278754	á r a
-0.6766936	á r b
-1.454845	á r c
-1.153815	á r d
-0.7144822	á r e
-1.454845	á r m
-1.056905	á r n
-1.153815	á r p
-1.40654	é r a
-0.8044802	é r c
-0.9672075	é r d
-1.230449	é r e
-0.5314789	é r i
-1.10551	é r m
-1.054358	é r o
-1.70757	é r r
-1.70757	é r s
-1.70757	é r t
-1.054358	í r </s>
-0.6863809	í r c
-0.30103	í r i
-1.30103	ó r b
-0.90309	ó r d
-1.30103	ó r e
-1	ó r g
-0.60206	ó r i
-0.8239087	ó r m
-1	ó r t
-1.231671	<s> s a
-2.910319	<s> s c
-3.454387	<s> s d
-0.4470665	<s> s e
-2.852328	<s> s h
-0.8114286	<s> s i
-0.9053842	<s> s o
-2.579326	<s> s p
-2.977266	<s> s t
-0.5872147	<s> s u
-2.755417	<s> s á
-2.324054	<s> s é
-1.970088	<s> s í
-1.734228	<s> s ó
-3.454387	<s> s ú
-0.1198412	a s </s>
-1.376649	a s a
-1.996083	a s c
-1.53706	a s e
-2.644886	a s f
-3.209157	a s g
-2.783189	a s h
-1.484882	a s i
-3.084219	a s k
-2.607097	a s l
-2.510187	a s m
-1.559174	a s o
-2.288339	a s p
-2.908128	a s q
-3.209157	a s s
-1.258144	a s t
-2.167765	a s u
-1.908127	a s í
-2.572335	a s ó
-0.4065402	b s e
-0.8325089	b s i
-0.7781513	b s o
-1.10551	b s t
-1.054358	b s u
-0.544068	c s o
-0.544068	d s </s>
-0.3679768	d s o
-0.3383104	e s </s>
-1.319092	e s a
-2.802203	e s b
-1.423503	e s c
-1.760811	e s d
-1.270725	e s e
-2.434227	e s f
-2.450021	e s g
-2.978295	e s h
-1.352468	e s i
-2.881385	e s l
-2.802203	e s m
-3.182415	e s n
-1.458139	e s o
-1.163714	e s p
-2.767441	e s q
-3.580355	e s s
-0.6947108	e s t
-1.946886	e s u
-2.767441	e s v
-3.580355	e s á
-3.036287	e s í
-2.802203	e s ó
-0.4259687	g s t
-1.210166	i s </s>
-1.420006	i s a
-2.394452	i s b
-1.515274	i s c
-1.721036	i s e
-1.91733	i s f
-2.93852	i s h
-0.972378	i s i
-1.558308	i s l
-0.8575327	i s m
-1.382217	i s o
-1.407041	i s p
-2.762429	i s q
-1.960796	i s r
-0.355321	i s t
-2.198157	i s u
-2.93852	i s é
-2.33646	i s ó
-1.263241	l s </s>
-0.5362427	l s a
-1.138303	l s e
-0.6264194	l s i
-0.6611814	l s o
-0.2632414	m s </s>
-2.318585	n s </s>
-0.6825989	n s a
-1.598426	n s c
-0.8637401	n s e
-1.429283	n s f
-2.619615	n s h
-0.6350877	n s i
-1.920645	n s m
-1.180282	n s o
-1.558917	n s p
-0.7745169	n s t
-1.257887	n s u
-2.142494	n s ó
-0.05882099	o s </s>
-1.594177	o s a
-2.317659	o s c
-1.916926	o s e
-3.206961	o s f
-3.507991	o s h
-1.54657	o s i
-3.331899	o s l
-3.206961	o s m
-3.110051	o s n
-1.602195	o s o
-2.428809	o s p
-3.030869	o s q
-1.698431	o s t
-1.190332	p s </s>
-0.449969	p s i
-0.3774183	p s o
-1.948576	r s </s>
-1.208213	r s a
-0.3882707	r s e
-0.8693947	r s i
-2.249606	r s k
-0.4836892	r s o
-1.881629	r s p
-2.425697	r s t
-2.425697	r s u
-0.8750613	s s </s>
-0.39794	s s e
-0.8750613	s s o
-0.3853509	t s </s>
-0.7533277	t s a
-0.9294189	t s j
-0.3892983	u s </s>
-1.190067	u s a
-1.291094	u s c
-1.835162	u s e
-1.016716	u s i
-2.613313	u s l
-0.9412153	u s o
-1.768215	u s p
-2.613313	u s q
-2.613313	u s s
-0.7212186	u s t
-2.136192	u s u
-2.613313	u s v
-2.136192	u s ó
-0.4771213	w s </s>
-0.4771213	w s k
-0.1760913	y s </s>
-0.0444314	á s </s>
-2.435366	á s c
-1.321423	á s i
-2.259275	á s p
-1.560305	á s t
-0.2329961	é s </s>
-1.534026	é s a
-1.931966	é s e
-1.755875	é s o
-1.630936	é s p
-0.5428	é s t
-0.4985194	í s </s>
-0.8556653	í s e
-0.5621885	í s i
-1.840942	í s m
-1.716003	í s o
-0.7269987	í s t
-1	ó s </s>
-1	ó s f
-0.6478175	ó s i
-1.30103	ó s m
-1.124939	ó s o
-1.30103	ó s p
-0.6478175	ó s t
-1.190332	ú s </s>
-0.4913617	ú s c
-0.7132105	ú s i
-0.6462637	ú s q
-3.105851	<s> t </s>
-0.7654065	<s> t a
-2.561783	<s> t c
-0.7079107	<s> t e
-2.804821	<s> t h
-0.8340091	<s> t i
-3.105851	<s> t m
-2.92976	<s> t n
-0.7096514	<s> t o
-0.6681001	<s> t r
-3.105851	<s> t s
-2.707911	<s> t t
-1.514786	<s> t u
-2.503791	<s> t á
-1.975517	<s> t é
-2.151608	<s> t í
-2.561783	<s> t ó
-2.452638	<s> t ú
-2.178154	a t </s>
-0.6032967	a t a
-0.8057685	a t e
-2.722223	a t h
-0.8994008	a t i
-1.909309	a t l
-2.722223	a t m
-0.7928035	a t o
-0.8802376	a t r
-2.546131	a t s
-1.014652	a t u
-2.546131	a t á
-2.245101	a t é
-1.98186	a t í
-1.792804	a t ó
-0.4191293	b t e
-1.021189	b t i
-0.544068	b t u
-1.051152	c t a
-2.109144	c t c
-1.221849	c t e
-0.5813305	c t i
-0.44504	c t o
-1.056615	c t r
-0.9674708	c t u
-2.051152	c t á
-2.255272	c t ú
-0.1760913	d t </s>
-1.717116	e t </s>
-0.5258508	e t a
-2.115056	e t c
-0.6602107	e t e
-0.7693551	e t i
-2.592177	e t n
-1.012393	e t o
-1.001112	e t r
-2.291147	e t t
-1.893207	e t u
-2.592177	e t z
-1.531479	e t á
-2.115056	e t í
-0.5351132	f t </s>
-0.6812412	f t a
-1.079181	f t c
-1.079181	f t u
-0.2787536	g t </s>
-0.4336556	g t o
-0.154902	h t </s>
-2.174018	i t </s>
-0.4532685	i t a
-1.105302	i t e
-0.9509304	i t i
-2.174018	i t m
-0.7159202	i t o
-1.939935	i t r
-0.7760782	i t u
-2.320146	i t z
-2.064874	i t á
-2.320146	i t é
-1.843025	i t í
-1.814996	i t ó
-2.240965	i t ú
-2.40654	l t </s>
-0.3853509	l t a
-1.216208	l t e
-0.6822643	l t i
-1.026329	l t o
-1.753328	l t r
-0.8267566	l t u
-2.0086	l t á
-1.628389	l t ó
-0.5228788	m t </s>
-0.5228788	m t s
-2.501744	n t </s>
-0.8625419	n t a
-0.3520848	n t e
-1.17658	n t i
-0.775133	n t o
-0.8444147	n t r
-1.931868	n t u
-2.606479	n t á
-2.948902	n t é
-2.045812	n t í
-1.985114	n t ó
-1.776338	o t </s>
-0.7063	o t a
-0.9110365	o t e
-1.139516	o t i
-1.063128	o t o
-0.3655607	o t r
-2.554489	o t s
-2.010421	o t t
-1.679428	o t u
-2.378398	o t é
-2.378398	o t í
-1.814126	o t ó
-0.5952206	p t a
-1.799341	p t e
-0.8216169	p t i
-0.3444957	p t o
-1.498311	p t u
-1.799341	p t ó
-1.996074	r t </s>
-0.5075229	r t a
-0.5811003	r t e
-0.6616199	r t i
-2.695044	r t m
-1.000438	r t o
-1.314832	r t u
-2.695044	r t é
-1.71732	r t í
-1.954681	r t ó
-0.4321383	s t a
-0.8460664	s t e
-0.9130132	s t i
-0.9314966	s t o
-0.8422059	s t r
-1.628113	s t u
-1.287829	s t á
-2.266896	s t é
-2.117133	s t í
-1.97883	s t ó
-3.196314	s t ú
-1.322219	t t b
-0.6232493	t t e
-0.7781513	t t f
-0.544068	t t i
-1.322219	t t o
-0.7196	u t a
-1.810681	u t b
-1.442704	u t e
-0.6345892	u t i
-0.5281339	u t o
-1.310078	u t r
-1.41274	u t t
-1.310078	u t u
-1.50965	u t é
-2.287802	u t í
-1.634589	u t ó
-1.799341	x t a
-0.6090088	x t e
-1.197281	x t i
-0.7024305	x t o
-0.3760947	x t r
-0.20412	z t o
-0.04206134	á t i
-1.511883	á t o
-1.08636	é t e
-0.2171281	é t i
-1.308209	é t n
-0.9402318	é t o
-1.4843	é t r
-0.08297423	í t i
-1.583577	í t o
-0.9815166	í t u
-0.5642715	ó t i
-0.4393327	ó t o
-0.1627273	ú t b
-0.7269987	ú t i
-2.46352	<s> u </s>
-2.889488	<s> u b
-3.06558	<s> u e
-2.46352	<s> u g
-2.889488	<s> u h
-2.412367	<s> u l
-2.76455	<s> u m
-0.03275957	<s> u n
-1.889488	<s> u r
-1.676414	<s> u s
-1.786826	<s> u t
-1.678648	a u </s>
-1.347655	a u d
-1.824776	a u f
-1.678648	a u g
-1.824776	a u l
-1.005233	a u m
-0.5943276	a u n
-1.620656	a u r
-0.9109626	a u s
-0.4823538	a u t
-1.313516	b u c
-2.091667	b u d
-0.573153	b u e
-1.915576	b u f
-1.547599	b u i
-1.693727	b u j
-1.162248	b u l
-1.137424	b u n
-0.930299	b u r
-0.7799131	b u s
-1.246569	b u t
-1.351304	b u y
-0.6414931	c u a
-1.503569	c u b
-2.095645	c u c
-1.932917	c u d
-0.7356369	c u e
-1.932917	c u i
-0.6401078	c u l
-1.310963	c u m
-1.932917	c u n
-2.659916	c u o
-1.358886	c u p
-1.036667	c u r
-1.836007	c u s
-1.618523	c u t
-1.545973	c u y
-1.756826	c u á
-1.602835	d u a
-0.3424227	d u c
-1.518514	d u d
-1.317599	d u e
-1.470209	d u j
-2.049993	d u k
-1.426744	d u l
-1.903865	d u m
-1.669782	d u o
-1.845873	d u q
-0.6417529	d u r
-1.317599	d u s
-2.146903	d u z
-1.755875	e u c
-1.454845	e u d
-0.5383909	e u n
-0.4036923	e u r
-1.278754	e u t
-0.9777236	e u u
-0.2227718	f u e
-1.631628	f u g
-1.974051	f u i
-1.718778	f u j
-1.673021	f u l
-1.559078	f u m
-0.7922073	f u n
-1.718778	f u r
-1.29281	f u s
-1.330598	f u t
-0.7571979	g u a
-1.993987	g u b
-0.8439986	g u e
-0.7667432	g u i
-2.051979	g u j
-1.516866	g u l
-0.5811067	g u n
-1.692957	g u o
-0.993987	g u r
-1.596047	g u s
-2.596047	g u t
-2.295017	g u é
-1.750949	g u í
-1.718086	h u a
-0.6766936	h u b
-1.843025	h u c
-0.6766936	h u e
-1.541995	h u i
-0.5139663	h u m
-1.475048	h u n
-1.843025	h u p
-1.475048	h u r
-1.278754	h u y
-1.123385	i u </s>
-0.2126081	i u d
-0.6897293	i u n
-1.667453	i u r
-1.748188	j u a
-2.049218	j u b
-1.308855	j u d
-0.6600519	j u e
-0.6874902	j u g
-1.146128	j u i
-2.049218	j u l
-0.88785	j u n
-1.396006	j u r
-0.8187691	j u s
-1.748188	j u v
-1.748188	j u z
-0.60206	k u l
-0.60206	k u r
-2.073718	l u a
-1.675778	l u b
-0.7026505	l u c
-1.353559	l u d
-1.107577	l u e
-1.22862	l u g
-1.22862	l u i
-1.976808	l u j
-1.561835	l u l
-1.04231	l u m
-1.499687	l u n
-1.976808	l u r
-0.7892876	l u s
-1.353559	l u t
-1.596597	l u v
-1.675778	l u y
-1.260805	l u z
-2.198657	l u ñ
-0.6976717	m u c
-1.921687	m u d
-0.9056984	m u e
-2.347655	m u f
-1.143535	m u j
-1.061348	m u l
-0.6152614	m u n
-1.463049	m u r
-1.678648	m u s
-1.710833	m u t
-0.8204551	m u y
-2.347655	m u ñ
-1.226342	n u a
-1.925312	n u b
-1.302063	n u c
-1.721192	n u d
-0.3642107	n u e
-1.721192	n u i
-1.846131	n u l
-1.281859	n u m
-0.6748921	n u n
-2.022222	n u o
-2.022222	n u r
-2.147161	n u s
-1.393833	n u t
-1.846131	n u y
-2.323252	n u ó
-1.342423	o u c
-1.166331	o u l
-0.4973246	o u n
-0.7403627	o u p
-1.342423	o u r
-1.595374	p u b
-1.359285	p u d
-0.2812723	p u e
-2.151676	p u g
-1.674555	p u j
-1.058255	p u l
-2.549616	p u m
-1.094771	p u n
-1.528427	p u r
-1.488918	p u s
-1.270863	p u t
-1.270863	p u é
-1.896404	p u ñ
-3.277265	q u a
-0.06855529	q u e
-0.9740692	q u i
-3.277265	q u o
-1.654016	q u é
-1.837933	q u í
-2.317018	r u </s>
-1.538867	r u a
-1.663806	r u b
-0.9190781	r u c
-1.618048	r u d
-1.005264	r u e
-1.441957	r u g
-1.086569	r u i
-1.919078	r u j
-1.663806	r u l
-1.099534	r u m
-2.140927	r u n
-1.663806	r u o
-0.779199	r u p
-2.015988	r u r
-0.9104779	r u s
-1.220108	r u t
-1.77295	r u y
-2.015988	r u z
-0.3919214	s u </s>
-1.794978	s u a
-1.413429	s u b
-1.536146	s u c
-2.184949	s u d
-1.413429	s u e
-1.554244	s u f
-2.323252	s u g
-1.846131	s u i
-2.184949	s u j
-1.400267	s u l
-1.592874	s u m
-1.864614	s u n
-1.169437	s u p
-1.510339	s u r
-0.6700396	s u s
-2.112399	s u t
-2.624282	s u y
-1.536997	t u </s>
-0.7814539	t u a
-2.199755	t u b
-1.421604	t u c
-1.023664	t u d
-2.199755	t u g
-1.619972	t u i
-1.407364	t u l
-1.556303	t u m
-1.436327	t u n
-2.053627	t u o
-2.597695	t u p
-0.4609746	t u r
-1.619972	t u s
-1.694605	t u t
-1.135297	t u v
-1.898725	t u y
-2.597695	t u í
-1.857332	t u ó
-0.03476211	u u </s>
-0.136838	v u e
-0.7231037	v u l
-0.05799195	x u a
-0.2688453	y u d
-0.4449366	y u n
-1.213075	z u b
-1.088136	z u d
-0.7871061	z u e
-1.389166	z u f
-0.4597472	z u l
-1.088136	z u m
-1.088136	z u r
-0.544068	á u f
-0.447158	é u </s>
-0.30103	é u t
-0.7372428	<s> v a
-0.4917689	<s> v e
-0.4581293	<s> v i
-1.155305	<s> v o
-1.378649	<s> v u
-2.363925	<s> v é
-1.650715	<s> v í
-1.79588	a v </s>
-0.69897	a v a
-0.5783961	a v e
-0.627088	a v i
-0.8181564	a v o
-2.09691	a v u
-1.055517	a v í
-0.6532125	b v e
-0.4771213	b v i
-0.2872417	d v e
-0.449969	d v i
-0.5067919	e v a
-0.8211859	e v e
-0.6343707	e v i
-0.6308542	e v o
-1.946125	e v u
-2.423246	e v á
-2.122216	e v é
-2.122216	e v í
-1.682883	e v ó
-0.4925909	i v a
-0.8709888	i v e
-0.5787327	i v i
-0.6085377	i v o
-2.569959	i v u
-1.829596	i v í
-0.7942979	l v a
-0.5239367	l v e
-0.4932679	l v i
-1.022777	l v o
-1.659599	l v é
-1.233631	l v í
-1.966924	n v </s>
-1.364864	n v a
-0.2265608	n v e
-0.61797	n v i
-1.267954	n v o
-2.143015	n v u
-2.143015	n v á
-1.841985	n v í
-1.41972	o v </s>
-0.9425985	o v a
-0.4135595	o v e
-0.60206	o v i
-0.8846066	o v o
-1.41972	o v í
-0.4109916	r v a
-0.7346855	r v e
-0.4828736	r v i
-1.579784	r v o
-1.579784	r v ó
-0.3756636	s v e
-0.5797836	s v i
-1.113943	u v e
-0.3480265	u v i
-0.3606157	u v o
-0.1139434	á v e
-0.90309	í v k
-0.30103	í v o
-0.39794	ó v e
-0.2596373	ó v i
-0.4436975	<s> w a
-0.79588	<s> w e
-0.69897	<s> w i
-0.09691001	a w a
-0.07918125	h w i
-0.1760913	i w o
-0.5642715	o w n
-0.4393327	o w s
-0.1249387	y w o
-0.60206	<s> x </s>
-0.60206	<s> x v
-1	a x </s>
-0.09691001	a x i
-1.487845	e x </s>
-1.436693	e x a
-1.089905	e x c
-2.214844	e x h
-0.5915946	e x i
-1.846867	e x o
-0.5396768	e x p
-0.6200831	e x t
-1.846867	e x u
-0.30103	i x i
-0.1760913	n x </s>
-0.60206	o x </s>
-0.2552725	o x i
-1.255273	o x í
-0.03218468	á x i
-0.07058107	é x i
-0.01639042	ó x i
-0.03608359	<s> y </s>
-1.248025	<s> y a
-2.920123	<s> y e
-1.753792	<s> y o
-2.920123	<s> y u
-3.096215	<s> y í
-0.5286791	a y </s>
-0.8966559	a y a
-2.127105	a y b
-0.9229848	a y e
-2.303196	a y l
-0.5004224	a y o
-2.303196	a y s
-1.127105	a y u
-1.759128	a y ó
-0.2794903	e y </s>
-0.4486327	e y e
-1.168792	e y ó
-0.02802872	i y i
-0.1760913	k y </s>
-0.447158	l y p
-0.6690068	l y w
-0.1760913	m y a
-0.2108534	n y </s>
-0.2063761	o y </s>
-1.206376	o y a
-0.7540784	o y e
-1.171614	o y o
-1.808436	o y u
-1.984527	o y á
-1.984527	o y ó
-0.39794	p y m
-0.09691001	r y </s>
-0.3158249	u y </s>
-0.9222063	u y a
-0.7760782	u y e
-2.019116	u y g
-2.019116	u y k
-0.8887825	u y o
-1.417056	u y ó
-0.1760913	á y a
-0.8027737	<s> z a
-0.8485312	<s> z o
-1.024622	<s> z u
-0.3044632	<s> z z
-1.404834	<s> z ü
-0.7722019	a z </s>
-0.5485842	a z a
-1.763428	a z g
-1.763428	a z i
-1.6173	a z n
-0.6111397	a z o
-1.231949	a z u
-0.8826144	a z ó
-0.3833347	e z </s>
-0.3799284	e z a
-1.144716	e z c
-1.708987	e z o
-2.186108	e z q
-1.584048	e z u
-1.788168	e z ó
-1.273527	i z </s>
-0.1657009	i z a
-1.770852	i z c
-2.01389	i z m
-0.9724974	i z o
-2.138829	i z q
-1.235739	i z á
-1.502007	i z ó
-0.1362197	l z a
-0.1158717	n z a
-1.596597	n z e
-1.244415	n z o
-1.897627	n z u
-1.499687	n z á
-1.244415	n z ó
-0.4319591	o z </s>
-0.5845693	o z a
-1.164353	o z c
-1.261263	o z e
-0.9090803	o z o
-0.243038	p z i
-0.2750166	r z a
-1.607455	r z i
-0.5467572	r z o
-1.431364	r z ó
-0.3424227	t z </s>
-0.7403627	t z a
-0.3107898	u z </s>
-0.8081145	u z a
-1.051152	u z c
-1.051152	u z g
-1.544068	z z a
-1.367977	z z c
-1.544068	z z l
-0.1730002	z z n
-1.544068	z z p
-1.066947	z z t
-1.051152	<s> á c
-1.051152	<s> á g
-1.176091	<s> á m
-0.8081145	<s> á n
-0.4771213	<s> á r
-1.352183	<s> á s
-0.7269987	b á r
-0.1627273	b á s
-1.01424	c á l
-0.9472936	c á m
-0.4306639	c á n
-0.7923917	c á r
-1.31527	c á s
-0.8846066	d á </s>
-0.3617278	d á n
-0.8846066	d á v
-0.9777236	f á b
-0.1995724	f á c
-1.278754	f á n
-1.278754	f á r
-0.03476211	g á n
-0.8239087	h á b
-0.60206	h á n
-0.455932	h á v
-0.5563025	i á l
-0.9542425	i á n
-0.6532125	i á t
-0.8129134	j á </s>
-0.2688453	j á n
-0.7846821	l á </s>
-1.525045	l á c
-0.9809768	l á g
-1.224015	l á m
-0.6799468	l á n
-0.5473212	l á s
-2.267172	m á </s>
-2.045323	m á g
-1.540173	m á n
-1.790051	m á q
-0.07312014	m á s
-1.252931	m á t
-1.63035	m á x
-0.6863809	n á l
-0.9294189	n á m
-0.8325089	n á n
-1.054358	n á s
-1.230449	n á t
-1.230449	n á u
-1.230449	n á y
-1.352183	p á </s>
-0.5392691	p á g
-1.051152	p á j
-1.176091	p á l
-1.176091	p á n
-0.8750613	p á r
-1.176091	p á t
-0.3333746	r á </s>
-0.9309802	r á c
-1.445085	r á f
-1.621176	r á g
-2.320146	r á l
-2.144055	r á m
-0.7126912	r á n
-1.621176	r á p
-1.240965	r á s
-1.475048	r á t
-0.544068	s á b
-1.021189	s á n
-1.021189	s á r
-0.845098	s á t
-0.3253195	t á </s>
-1.679428	t á b
-1.202307	t á c
-1.901277	t á f
-1.056179	t á l
-0.5790573	t á n
-1.600247	t á r
-1.901277	t á s
-0.1684044	u á l
-0.748188	u á n
-0.5642715	v á l
-0.4393327	v á n
-0.2064739	z á </s>
-0.9661418	z á l
-1.09108	z á n
-0.1760913	ñ á n
-0.1760913	a ç a
-0.04575749	r ç a
-0.3258536	<s> é l
-1.778151	<s> é m
-1.954242	<s> é n
-1.352183	<s> é p
-1.954242	<s> é r
-0.5563025	<s> é s
-1.255273	<s> é t
-1.176091	<s> é x
-0.3521825	a é r
-1.060698	b é </s>
-0.6627578	b é s
-0.6627578	b é u
-0.5713912	c é l
-0.5713912	c é s
-1.010724	c é t
-0.9138138	c é u
-0.8653014	d é </s>
-0.7403627	d é b
-0.7983546	d é c
-1.342423	d é f
-1.342423	d é m
-0.7403627	d é n
-1.041393	d é s
-0.1760913	f é </s>
-0.6232493	f é r
-0.30103	g é t
-0.8750613	h é c
-0.2218488	h é r
-1.635986	i é l
-0.05335467	i é n
-1.392948	i é r
-0.1512677	j é r
-1.643453	l é </s>
-0.2632414	l é c
-1.217484	l é f
-1.819544	l é i
-1.643453	l é m
-1.041393	l é n
-1.006631	l é s
-1.421604	l é t
-0.7596679	m é d
-1.236789	m é n
-0.4771213	m é r
-1.060698	m é s
-0.7974564	m é t
-1.139879	m é x
-0.9822713	n é c
-1.380211	n é d
-1.380211	n é r
-0.4259687	n é s
-0.60206	n é t
-0.1760913	o é </s>
-0.1760913	p é r
-0.9542425	p é u
-0.750999	r é </s>
-1.31527	r é c
-0.9472936	r é d
-0.750999	r é g
-1.01424	r é p
-0.6462637	r é s
-0.1697511	s é </s>
-1.230449	s é i
-0.9294189	s é p
-0.6941175	t é </s>
-0.64836	t é c
-1.34733	t é g
-1.64836	t é m
-0.6941175	t é n
-0.94939	t é r
-1.171239	t é t
-0.1845244	u é </s>
-0.5011595	u é s
-0.60206	v é </s>
-0.69897	v é a
-1	v é r
-1	<s> í d
-0.2218488	<s> í n
-1.342423	a í a
-1.819544	a í c
-0.7588461	a í d
-0.1711839	a í s
-1.643453	a í t
-0.01145962	b í a
-0.1720885	c í a
-1.306425	c í c
-1.168122	c í f
-1.908485	c í n
-1.306425	c í o
-1.510545	c í p
-1.306425	c í r
-1.475048	d í </s>
-0.1053024	d í a
-1.417056	d í c
-1.843025	d í g
-1.621176	d í n
-2.019116	d í o
-1.365904	d í s
-1.135663	e í </s>
-0.3340303	e í a
-1.311754	e í b
-0.8346326	e í d
-1.311754	e í s
-0.6557449	f í a
-0.5365584	f í c
-1.633469	f í j
-1.457377	f í n
-1.633469	f í o
-0.5365584	f í s
-0.0854302	g í a
-1.146128	g í t
-0.4065402	h í </s>
-1.40654	h í b
-0.7533277	h í c
-0.7075702	h í s
-0.8021515	l í </s>
-1.366423	l í a
-1.843544	l í b
-1.190332	l í c
-1.047664	l í d
-1.843544	l í e
-0.8121358	l í m
-1.331661	l í n
-2.144574	l í o
-1.968483	l í q
-1.968483	l í r
-1.366423	l í s
-0.5479771	l í t
-0.6434527	m í </s>
-0.5407903	m í a
-1.518514	m í c
-1.217484	m í f
-0.8653014	m í n
-1.041393	m í s
-1.518514	m í t
-0.06630671	n í a
-1.752048	n í s
-0.544068	o í d
-1.021189	o í r
-0.7201593	o í s
-1.161368	p í a
-0.3832167	p í r
-1.161368	p í t
-0.6173	p í v
-0.1167443	r í a
-2.021189	r í c
-2.146128	r í d
-2.322219	r í e
-2.322219	r í f
-2.021189	r í g
-1.778151	r í n
-1.131888	r í o
-1.280827	r í s
-1.623249	r í t
-0.1227834	s í </s>
-1.127105	s í a
-1.348954	s í m
-1.085712	s í n
-1.579784	t í </s>
-0.5286311	t í a
-1.227601	t í c
-1.880814	t í d
-1.482874	t í e
-0.6904819	t í f
-1.278754	t í m
-1.278754	t í n
-1.880814	t í o
-1.579784	t í p
-1.181844	t í s
-1.181844	t í t
-0.3869446	u í </s>
-0.613341	u í a
-0.6368221	u í m
-0.2188432	v í a
-0.6600519	v í c
-1.681241	v í d
-1.681241	v í o
-1.681241	v í s
-0.1760913	x í g
-0.1760913	y í v
-0.05551733	ñ í a
-0.09691001	ü í s
-0.5697525	a ñ a
-1.271928	a ñ e
-1.800201	a ñ i
-0.2393984	a ñ o
-2.402261	a ñ á
-1.360869	a ñ í
-1.703291	a ñ ó
-0.3720933	e ñ a
-1.849215	e ñ e
-1.627366	e ñ i
-0.3051466	e ñ o
-2.025306	e ñ ó
-0.6532125	i ñ a
-0.2060545	i ñ o
-1.352183	i ñ ó
-0.19382	o ñ a
-0.552842	o ñ o
-0.5228788	u ñ a
-0.5228788	u ñ e
-0.60206	u ñ o
-0.7269987	<s> ó p
-0.2498775	<s> ó r
-0.2263964	b ó </s>
-1.20412	b ó l
-0.90309	b ó s
-0.3357921	c ó </s>
-1.716003	c ó d
-1.716003	c ó l
-0.5303668	c ó m
-1.046997	c ó n
-1.892095	c ó p
-1.716003	c ó r
-1.892095	c ó s
-1.892095	c ó t
-0.3818532	d ó </s>
-1.423246	d ó j
-0.7242759	d ó l
-0.6103325	d ó n
-0.5006024	e ó </s>
-0.6766936	e ó n
-0.6766936	e ó r
-0.2762064	f ó n
-0.4522977	f ó r
-0.09080742	g ó </s>
-1.423246	g ó n
-0.1760913	h ó </s>
-0.7626104	i ó </s>
-2.201943	i ó d
-2.423792	i ó l
-0.0920272	i ó n
-2.599883	i ó s
-0.3521825	j ó </s>
-0.8081145	j ó n
-0.4771213	j ó v
-0.6136419	l ó </s>
-0.3557688	l ó g
-1.0679	l ó m
-0.8201157	l ó n
-1.704722	l ó s
-0.2891308	m ó </s>
-1.255273	m ó n
-0.5149098	m ó v
-0.4645321	n ó </s>
-0.3273589	n ó m
-1.30963	n ó n
-1.30963	n ó s
-1.70757	n ó t
-0.6611814	p ó </s>
-1.439333	p ó c
-1.041393	p ó l
-0.5642715	p ó n
-1.439333	p ó r
-0.6264194	p ó s
-0.3168243	r ó </s>
-1.924279	r ó f
-1.924279	r ó g
-1.380211	r ó l
-0.6455257	r ó n
-1.924279	r ó s
-0.8635814	r ó x
-0.6249229	s ó </s>
-0.1719353	s ó l
-1.591065	s ó n
-1.892095	s ó r
-1.716003	s ó t
-0.1823402	t ó </s>
-1.942008	t ó c
-1.765917	t ó g
-1.201645	t ó m
-0.8628268	t ó n
-1.464887	t ó r
-1.765917	t ó x
-0.03218468	u ó </s>
-0.02632894	v ó </s>
-0.02020339	y ó </s>
-0.3258536	z ó </s>
-0.30103	z ó n
-0.60206	ñ ó </s>
-0.20412	ñ ó n
-0.2265822	<s> ú l
-0.4086639	<s> ú n
-0.02928938	a ú n
-0.6532125	b ú h
-0.7781513	b ú l
-0.3521825	b ú s
-0.1047354	d ú </s>
-0.243038	e ú n
-0.8750613	f ú n
-0.1346986	f ú t
-1.4843	g ú m
-0.02190184	g ú n
-0.1760913	h ú m
-0.60206	l ú e
-0.60206	l ú g
-0.7403627	m ú l
-0.3723859	m ú n
-0.5185139	m ú s
-0.7781513	n ú a
-0.20412	n ú m
-1.20412	n ú t
-0.1091445	p ú b
-0.9542425	p ú s
-0.243038	r ú </s>
-0.845098	r ú p
-0.39794	s ú p
-0.5081555	t ú </s>
-0.4210053	t ú a
-1.161368	t ú p
-0.30103	g ü e
-0.60206	g ü í
-0.07918125	z ü l

\end\
