
\data\
ngram 1=35

\1-grams:
-99	</s>
-99	<s>
-1.308209	A
-1.308209	B
-1.308209	C
-1.308209	D
-1.18327	E
-1.18327	F
-1.08636	G
-1.78533	a
-1.78533	b
-1.78533	c
-1.78533	d
-1.78533	e
-1.78533	f
-1.78533	g
-1.78533	h
-1.78533	i
-1.78533	j
-1.78533	k
-1.78533	l
-1.78533	m
-1.78533	n
-1.78533	o
-1.78533	p
-1.4843	q
-1.4843	r
-1.4843	s
-1.4843	t
-1.4843	u
-1.4843	v
-1.4843	w
-1.4843	x
-1.4843	y
-1.4843	z

\end\
