
\data\
ngram 1=35

\1-grams:
-1.792391	</s>
-99	<s>
-1.31527	A
-1.31527	B
-1.31527	C
-1.31527	D
-1.190332	E
-1.190332	F
-1.093422	G
-1.792392	a
-1.792392	b
-1.792392	c
-1.792392	d
-1.792392	e
-1.792392	f
-1.792392	g
-1.792392	h
-1.792392	i
-1.792392	j
-1.792392	k
-1.792392	l
-1.792392	m
-1.792392	n
-1.792392	o
-1.792392	p
-1.491362	q
-1.491362	r
-1.491362	s
-1.491362	t
-1.491362	u
-1.491362	v
-1.491362	w
-1.491362	x
-1.491362	y
-1.491362	z

\end\
