
\data\
ngram 1=10
ngram 2=18

\1-grams:
-0.4929155	</s>
-99	<s>	-0.07918125
-1.447158	<unk>
-0.748188	a	-0.02020332
-0.6690068	b	-0.1091445
-1.146128	c	0.03218472
-1.146128	d	-0.1091444
-1.447158	e	-0.1326256
-1.447158	f	-0.1326256
-1.447158	g	-0.2852357

\2-grams:
-0.6690068	<s> a
-0.6690068	<s> b
-1.146128	<s> c
-1.146128	<s> d
-1.146128	<s> g
-0.60206	a </s>
-0.60206	a b
-0.90309	a c
-0.4771213	b </s>
-0.6532125	b a
-0.9542425	b d
-0.60206	c </s>
-0.60206	c b
-0.60206	d </s>
-0.60206	d e
-0.30103	e </s>
-0.30103	f </s>
-0.30103	g f

\end\
