
\data\
ngram 1=5
ngram 2=10

\1-grams:
-0.4771213	</s>
-99	<s>	0
-0.5563025	a	0.1303338
-0.5563025	b	-0.1338936
-0.9542425	c	0.1091445

\2-grams:
-0.4771213	<s> a
-0.6532125	<s> b
-0.9542425	<s> c
-0.60206	a </s>
-0.60206	a b
-0.90309	a c
-0.3679768	b </s>
-0.544068	b a
-0.60206	c </s>
-0.60206	c b

\end\
