
\data\
ngram 1=5
ngram 2=10

\1-grams:
-0.4973246	</s>
-99	<s>	0.02020338
-0.5642715	a	0.1383028
-0.5642715	b	-0.1558879
-0.8653014	c	0.08715019

\2-grams:
-0.4771213	<s> a
-0.6532125	<s> b
-0.9542425	<s> c
-0.60206	a </s>
-0.60206	a b
-0.90309	a c
-0.3679768	b </s>
-0.544068	b a
-0.60206	c </s>
-0.60206	c b

\end\
