
\data\
ngram 1=7
ngram 2=12

\1-grams:
-0.4973246	</s>
-99	<s>	-0.1346986
-1.342422	<unk>
-0.6434527	a	0.07135594
-0.5642715	b	-0.08894113
-1.041393	c	0.08715019
-1.342423	d	-0.1346986

\2-grams:
-0.5228788	<s> a
-0.5228788	<s> b
-1	<s> c
-0.60206	a </s>
-0.60206	a b
-0.90309	a c
-0.4771213	b </s>
-0.6532125	b a
-0.9542425	b d
-0.60206	c </s>
-0.60206	c b
-0.30103	d </s>

\end\
